{"name": "tree", "version": "v2", "num_class": 1, "num_tree_per_iteration": 1, "label_index": 0, "max_feature_idx": 198, "feature_names": ["A_B", "A_Back", "A_C", "A_D", "A_I", "A_L", "A_M", "A_N", "A_P", "A_R", "A_S", "A_Space", "A_T", "A_V", "A_Y", "B_E", "B_O", "B_U", "Back_A", "Back_Back", "Back_E", "Back_I", "Back_LShiftKey", "Back_N", "Back_O", "Back_Oemcomma", "Back_S", "Back_Space", "Back_T", "C_A", "C_E", "C_H", "C_O", "C_T", "D_A", "D_E", "D_I", "D_O", "D_Space", "E_A", "E_Back", "E_C", "E_D", "E_E", "E_L", "E_N", "E_OemPeriod", "E_R", "E_S", "E_Space", "E_T", "E_V", "F_A", "F_E", "F_I", "F_O", "F_R", "F_Space", "G_E", "G_H", "G_O", "G_R", "G_Space", "H_A", "H_E", "H_I", "H_O", "H_Space", "I_Back", "I_C", "I_D", "I_E", "I_F", "I_G", "I_L", "I_M", "I_N", "I_O", "I_R", "I_S", "I_Space", "I_T", "I_V", "K_E", "LShiftKey_A", "LShiftKey_I", "LShiftKey_T", "L_A", "L_D", "L_E", "L_I", "L_L", "L_O", "L_Space", "L_Y", "M_A", "M_E", "M_O", "M_P", "M_Space", "M_Y", "N_Back", "N_C", "N_D", "N_E", "N_G", "N_I", "N_O", "N_S", "N_Space", "N_T", "O_Back", "O_F", "O_L", "O_M", "O_N", "O_O", "O_P", "O_R", "O_S", "O_Space", "O_T", "O_U", "O_W", "OemPeriod_Space", "Oemcomma_Space", "P_A", "P_E", "P_L", "P_O", "P_P", "P_R", "R_A", "R_E", "R_I", "R_O", "R_S", "R_Space", "R_T", "R_Y", "S_Back", "S_E", "S_I", "S_O", "S_OemPeriod", "S_S", "S_Space", "S_T", "Space_A", "Space_B", "Space_Back", "Space_C", "Space_D", "Space_E", "Space_F", "Space_G", "Space_H", "Space_I", "Space_L", "Space_LShiftKey", "Space_M", "Space_N", "Space_O", "Space_P", "Space_R", "Space_RShiftKey", "Space_S", "Space_T", "Space_V", "Space_W", "Space_Y", "T_A", "T_Back", "T_E", "T_H", "T_I", "T_O", "T_OemPeriod", "T_R", "T_S", "T_Space", "T_U", "U_L", "U_N", "U_R", "U_S", "U_Space", "U_T", "V_E", "V_I", "W_A", "W_E", "W_H", "W_I", "W_O", "W_Space", "Y_E", "Y_O", "Y_Space"], "tree_info": [{"tree_index": 0, "num_leaves": 31, "num_cat": 0, "shrinkage": 1, "tree_structure": {"split_index": 0, "split_feature": 198, "split_gain": 166.2449951171875, "threshold": 123.00000000000001, "decision_type": "<=", "default_left": false, "missing_type": "NaN", "internal_value": 0, "internal_count": 8066, "left_child": {"split_index": 1, "split_feature": 122, "split_gain": 398.6050109863281, "threshold": 219.25000000000003, "decision_type": "<=", "default_left": true, "missing_type": "NaN", "internal_value": 4.18584, "internal_count": 707, "left_child": {"split_index": 3, "split_feature": 76, "split_gain": 180.9530029296875, "threshold": 188.50000000000003, "decision_type": "<=", "default_left": true, "missing_type": "NaN", "internal_value": 1.93638, "internal_count": 637, "left_child": {"split_index": 13, "split_feature": 107, "split_gain": 30.974000930786133, "threshold": 202.25000000000003, "decision_type": "<=", "default_left": true, "missing_type": "NaN", "internal_value": -0.105081, "internal_count": 540, "left_child": {"split_index": 21, "split_feature": 31, "split_gain": 14.304400444030762, "threshold": 183.25000000000003, "decision_type": "<=", "default_left": true, "missing_type": "NaN", "internal_value": -0.540458, "internal_count": 519, "left_child": {"split_index": 27, "split_feature": 197, "split_gain": 3.9196300506591797, "threshold": 93.75000000000001, "decision_type": "<=", "default_left": false, "missing_type": "NaN", "internal_value": -0.848552, "internal_count": 498, "left_child": {"leaf_index": 0, "leaf_value": -4.0706601298518565, "leaf_count": 20}, "right_child": {"leaf_index": 28, "leaf_value": -4.479022914463391, "leaf_count": 478}}, "right_child": {"leaf_index": 22, "leaf_value": -3.7011890390128537, "leaf_count": 21}}, "right_child": {"leaf_index": 14, "leaf_value": -3.3122721012875846, "leaf_count": 21}}, "right_child": {"split_index": 4, "split_feature": 133, "split_gain": 127.15699768066406, "threshold": 171.90000000000003, "decision_type": "<=", "default_left": true, "missing_type": "NaN", "internal_value": 13.3012, "internal_count": 97, "left_child": {"split_index": 6, "split_feature": 147, "split_gain": 78.94719696044922, "threshold": 207.37500000000003, "decision_type": "<=", "default_left": true, "missing_type": "NaN", "internal_value": 7.03967, "internal_count": 71, "left_child": {"split_index": 28, "split_feature": 7, "split_gain": 2.416840076446533, "threshold": 89.08333333333336, "decision_type": "<=", "default_left": true, "missing_type": "NaN", "internal_value": 0.654234, "internal_count": 49, "left_child": {"leaf_index": 4, "leaf_value": -4.070660129851858, "leaf_count": 20}, "right_child": {"leaf_index": 29, "leaf_value": -4.479022914463391, "leaf_count": 29}}, "right_child": {"leaf_index": 7, "leaf_value": -2.2515895438550344, "leaf_count": 22}}, "right_child": {"leaf_index": 5, "leaf_value": -1.3377707251439124, "leaf_count": 26}}}, "right_child": {"split_index": 2, "split_feature": 120, "split_gain": 340.2250061035156, "threshold": 117.25000000000001, "decision_type": "<=", "default_left": false, "missing_type": "NaN", "internal_value": 24.656, "internal_count": 70, "left_child": {"leaf_index": 2, "leaf_value": 1.2380560700980574, "leaf_count": 20}, "right_child": {"split_index": 5, "split_feature": 49, "split_gain": 113.25299835205078, "threshold": 124.45000000000002, "decision_type": "<=", "default_left": true, "missing_type": "NaN", "internal_value": 12.0551, "internal_count": 50, "left_child": {"leaf_index": 3, "leaf_value": -1.7566043503865103, "leaf_count": 24}, "right_child": {"leaf_index": 6, "leaf_value": -4.479022914463391, "leaf_count": 26}}}}, "right_child": {"split_index": 7, "split_feature": 180, "split_gain": 78.06919860839844, "threshold": 108.87500000000001, "decision_type": "<=", "default_left": false, "missing_type": "NaN", "internal_value": -0.402146, "internal_count": 7359, "left_child": {"split_index": 8, "split_feature": 76, "split_gain": 278.1929931640625, "threshold": 191.8571428571429, "decision_type": "<=", "default_left": true, "missing_type": "NaN", "internal_value": 2.45304, "internal_count": 707, "left_child": {"split_index": 11, "split_feature": 133, "split_gain": 40.0702018737793, "threshold": 188.75000000000003, "decision_type": "<=", "default_left": true, "missing_type": "NaN", "internal_value": 0.192452, "internal_count": 610, "left_child": {"split_index": 20, "split_feature": 70, "split_gain": 14.630000114440918, "threshold": 93.25000000000001, "decision_type": "<=", "default_left": false, "missing_type": "NaN", "internal_value": -0.437395, "internal_count": 568, "left_child": {"leaf_index": 1, "leaf_value": -3.662297345240322, "leaf_count": 20}, "right_child": {"split_index": 22, "split_feature": 63, "split_gain": 11.503499984741211, "threshold": 62.583333333333336, "decision_type": "<=", "default_left": false, "missing_type": "NaN", "internal_value": -0.714478, "internal_count": 548, "left_child": {"leaf_index": 21, "leaf_value": -3.8740410113351946, "leaf_count": 27}, "right_child": {"leaf_index": 23, "leaf_value": -4.479022914463391, "leaf_count": 521}}}, "right_child": {"split_index": 12, "split_feature": 38, "split_gain": 53.47610092163086, "threshold": 108.58333333333336, "decision_type": "<=", "default_left": true, "missing_type": "NaN", "internal_value": 8.71037, "internal_count": 42, "left_child": {"leaf_index": 12, "leaf_value": -2.437208991405731, "leaf_count": 20}, "right_child": {"leaf_index": 13, "leaf_value": -4.479022914463391, "leaf_count": 22}}}, "right_child": {"split_index": 9, "split_feature": 120, "split_gain": 481.04901123046875, "threshold": 119.50000000000001, "decision_type": "<=", "default_left": false, "missing_type": "NaN", "internal_value": 16.6691, "internal_count": 97, "left_child": {"leaf_index": 9, "leaf_value": 1.2380560700980618, "leaf_count": 20}, "right_child": {"split_index": 10, "split_feature": 49, "split_gain": 77.12190246582031, "threshold": 124.12500000000001, "decision_type": "<=", "default_left": false, "missing_type": "NaN", "internal_value": 6.41222, "internal_count": 77, "left_child": {"leaf_index": 10, "leaf_value": -2.6348038871855035, "leaf_count": 31}, "right_child": {"leaf_index": 11, "leaf_value": -4.479022914463391, "leaf_count": 46}}}}, "right_child": {"split_index": 14, "split_feature": 47, "split_gain": 17.476299285888672, "threshold": 192.50000000000003, "decision_type": "<=", "default_left": true, "missing_type": "NaN", "internal_value": -0.705606, "internal_count": 6652, "left_child": {"split_index": 23, "split_feature": 100, "split_gain": 9.036060333251953, "threshold": 635.5000000000001, "decision_type": "<=", "default_left": true, "missing_type": "NaN", "internal_value": -0.922705, "internal_count": 5454, "left_child": {"split_index": 25, "split_feature": 9, "split_gain": 3.9786300659179688, "threshold": 948.0000000000001, "decision_type": "<=", "default_left": true, "missing_type": "NaN", "internal_value": -0.952267, "internal_count": 5419, "left_child": {"split_index": 26, "split_feature": 50, "split_gain": 4.008220195770264, "threshold": 857.5000000000001, "decision_type": "<=", "default_left": true, "missing_type": "NaN", "internal_value": -0.967171, "internal_count": 5399, "left_child": {"split_index": 29, "split_feature": 163, "split_gain": 1.3874599933624268, "threshold": 2113.5000000000005, "decision_type": "<=", "default_left": true, "missing_type": "NaN", "internal_value": -0.982186, "internal_count": 5379, "left_child": {"leaf_index": 8, "leaf_value": -4.477488292950383, "leaf_count": 5322}, "right_child": {"leaf_index": 30, "leaf_value": -4.335737726880397, "leaf_count": 57}}, "right_child": {"leaf_index": 27, "leaf_value": -4.070660129851857, "leaf_count": 20}}, "right_child": {"leaf_index": 26, "leaf_value": -4.070660129851857, "leaf_count": 20}}, "right_child": {"leaf_index": 24, "leaf_value": -4.012322589193067, "leaf_count": 35}}, "right_child": {"split_index": 15, "split_feature": 120, "split_gain": 86.00420379638672, "threshold": 120.87500000000001, "decision_type": "<=", "default_left": false, "missing_type": "NaN", "internal_value": 0.282754, "internal_count": 1198, "left_child": {"split_index": 16, "split_feature": 122, "split_gain": 108.06300354003906, "threshold": 202.83333333333334, "decision_type": "<=", "default_left": true, "missing_type": "NaN", "internal_value": 9.45829, "internal_count": 78, "left_child": {"split_index": 19, "split_feature": 124, "split_gain": 24.079299926757812, "threshold": 234.25000000000003, "decision_type": "<=", "default_left": false, "missing_type": "NaN", "internal_value": 3.21189, "internal_count": 58, "left_child": {"leaf_index": 15, "leaf_value": -3.2539345606287826, "leaf_count": 20}, "right_child": {"leaf_index": 20, "leaf_value": -4.479022914463391, "leaf_count": 38}}, "right_child": {"leaf_index": 17, "leaf_value": -1.620483422182668, "leaf_count": 20}}, "right_child": {"split_index": 17, "split_feature": 109, "split_gain": 50.484100341796875, "threshold": 109.12500000000001, "decision_type": "<=", "default_left": false, "missing_type": "NaN", "internal_value": -0.356256, "internal_count": 1120, "left_child": {"leaf_index": 16, "leaf_value": -3.375339712810598, "leaf_count": 37}, "right_child": {"split_index": 18, "split_feature": 80, "split_gain": 32.281898498535156, "threshold": 109.16666666666667, "decision_type": "<=", "default_left": false, "missing_type": "NaN", "internal_value": -0.7109, "internal_count": 1083, "left_child": {"leaf_index": 18, "leaf_value": -3.365306229159209, "leaf_count": 22}, "right_child": {"split_index": 24, "split_feature": 68, "split_gain": 4.006649971008301, "threshold": 1045.5000000000002, "decision_type": "<=", "default_left": true, "missing_type": "NaN", "internal_value": -0.935576, "internal_count": 1061, "left_child": {"leaf_index": 19, "leaf_value": -4.479022914463391, "leaf_count": 1041}, "right_child": {"leaf_index": 25, "leaf_value": -4.07066012985186, "leaf_count": 20}}}}}}}}}, {"tree_index": 1, "num_leaves": 31, "num_cat": 0, "shrinkage": 0.1, "tree_structure": {"split_index": 0, "split_feature": 47, "split_gain": 35.77730178833008, "threshold": 192.50000000000003, "decision_type": "<=", "default_left": true, "missing_type": "NaN", "internal_value": 0, "internal_count": 8066, "left_child": {"split_index": 7, "split_feature": 49, "split_gain": 20.24970054626465, "threshold": 92.70000000000002, "decision_type": "<=", "default_left": false, "missing_type": "NaN", "internal_value": -0.65481, "internal_count": 6691, "left_child": {"split_index": 8, "split_feature": 159, "split_gain": 49.895999908447266, "threshold": 2562.5000000000005, "decision_type": "<=", "default_left": true, "missing_type": "NaN", "internal_value": 0.857103, "internal_count": 442, "left_child": {"split_index": 9, "split_feature": 112, "split_gain": 17.699800491333008, "threshold": 218.58333333333334, "decision_type": "<=", "default_left": true, "missing_type": "NaN", "internal_value": 0.0897859, "internal_count": 412, "left_child": {"split_index": 23, "split_feature": 9, "split_gain": 4.483230113983154, "threshold": 257.37500000000006, "decision_type": "<=", "default_left": true, "missing_type": "NaN", "internal_value": -0.389244, "internal_count": 392, "left_child": {"split_index": 27, "split_feature": 149, "split_gain": 2.916990041732788, "threshold": 938.6666666666669, "decision_type": "<=", "default_left": true, "missing_type": "NaN", "internal_value": -0.731836, "internal_count": 371, "left_child": {"leaf_index": 0, "leaf_value": -0.09652284226302281, "leaf_count": 351}, "right_child": {"leaf_index": 28, "leaf_value": 0.14549366893490082, "leaf_count": 20}}, "right_child": {"leaf_index": 24, "leaf_value": 0.15578039222198675, "leaf_count": 21}}, "right_child": {"leaf_index": 10, "leaf_value": 0.5108329747560273, "leaf_count": 20}}, "right_child": {"leaf_index": 9, "leaf_value": 0.892183610053273, "leaf_count": 30}}, "right_child": {"split_index": 11, "split_feature": 113, "split_gain": 13.842000007629395, "threshold": 187.25000000000003, "decision_type": "<=", "default_left": false, "missing_type": "NaN", "internal_value": -0.80398, "internal_count": 6249, "left_child": {"split_index": 12, "split_feature": 35, "split_gain": 41.675498962402344, "threshold": 187.1666666666667, "decision_type": "<=", "default_left": true, "missing_type": "NaN", "internal_value": 0.84847, "internal_count": 360, "left_child": {"split_index": 13, "split_feature": 60, "split_gain": 24.61090087890625, "threshold": 124.75000000000001, "decision_type": "<=", "default_left": true, "missing_type": "NaN", "internal_value": 0.0801506, "internal_count": 340, "left_child": {"split_index": 20, "split_feature": 103, "split_gain": 5.546460151672363, "threshold": 187.75000000000003, "decision_type": "<=", "default_left": true, "missing_type": "NaN", "internal_value": -0.559508, "internal_count": 314, "left_child": {"leaf_index": 8, "leaf_value": -0.10310333206918587, "leaf_count": 281}, "right_child": {"leaf_index": 21, "leaf_value": 0.2267034643002783, "leaf_count": 33}}, "right_child": {"leaf_index": 14, "leaf_value": 0.8685884544581994, "leaf_count": 26}}, "right_child": {"leaf_index": 13, "leaf_value": 1.2212532672782137, "leaf_count": 20}}, "right_child": {"split_index": 16, "split_feature": 98, "split_gain": 8.764129638671875, "threshold": 245.50000000000003, "decision_type": "<=", "default_left": true, "missing_type": "NaN", "internal_value": -0.90648, "internal_count": 5889, "left_child": {"split_index": 24, "split_feature": 152, "split_gain": 3.65447998046875, "threshold": 3264.2500000000005, "decision_type": "<=", "default_left": true, "missing_type": "NaN", "internal_value": -0.978571, "internal_count": 5679, "left_child": {"split_index": 25, "split_feature": 173, "split_gain": 3.210099935531616, "threshold": 50.75000000000001, "decision_type": "<=", "default_left": false, "missing_type": "NaN", "internal_value": -0.992085, "internal_count": 5656, "left_child": {"leaf_index": 12, "leaf_value": 0.22358447171838225, "leaf_count": 23}, "right_child": {"split_index": 26, "split_feature": 67, "split_gain": 3.0593299865722656, "threshold": 81.75000000000001, "decision_type": "<=", "default_left": false, "missing_type": "NaN", "internal_value": -1.00565, "internal_count": 5633, "left_child": {"leaf_index": 26, "leaf_value": -0.2675913703095159, "leaf_count": 49}, "right_child": {"split_index": 28, "split_feature": 80, "split_gain": 2.91048002243042, "threshold": 104.62500000000001, "decision_type": "<=", "default_left": false, "missing_type": "NaN", "internal_value": -0.980562, "internal_count": 5584, "left_child": {"split_index": 29, "split_feature": 45, "split_gain": 10.759499549865723, "threshold": 249.58333333333334, "decision_type": "<=", "default_left": true, "missing_type": "NaN", "internal_value": -0.248204, "internal_count": 294, "left_child": {"leaf_index": 27, "leaf_value": -0.061915549428721184, "leaf_count": 274}, "right_child": {"leaf_index": 30, "leaf_value": 0.5500113487963539, "leaf_count": 20}}, "right_child": {"leaf_index": 29, "leaf_value": -0.10358079978003304, "leaf_count": 5290}}}}, "right_child": {"leaf_index": 25, "leaf_value": 0.269603963690104, "leaf_count": 23}}, "right_child": {"split_index": 17, "split_feature": 198, "split_gain": 16.631799697875977, "threshold": 140.1666666666667, "decision_type": "<=", "default_left": false, "missing_type": "NaN", "internal_value": 0.673375, "internal_count": 210, "left_child": {"leaf_index": 17, "leaf_value": 0.3612783304796453, "leaf_count": 20}, "right_child": {"leaf_index": 18, "leaf_value": -0.10115587524030073, "leaf_count": 190}}}}}, "right_child": {"split_index": 1, "split_feature": 49, "split_gain": 49.095298767089844, "threshold": 135.08333333333334, "decision_type": "<=", "default_left": true, "missing_type": "NaN", "internal_value": 0.721842, "internal_count": 1375, "left_child": {"split_index": 2, "split_feature": 76, "split_gain": 34.450599670410156, "threshold": 181.83333333333334, "decision_type": "<=", "default_left": false, "missing_type": "NaN", "internal_value": 2.27521, "internal_count": 458, "left_child": {"leaf_index": 1, "leaf_value": -0.10380374292253691, "leaf_count": 158}, "right_child": {"split_index": 3, "split_feature": 157, "split_gain": 43.12730026245117, "threshold": 436.5833333333334, "decision_type": "<=", "default_left": true, "missing_type": "NaN", "internal_value": 3.22123, "internal_count": 300, "left_child": {"split_index": 5, "split_feature": 58, "split_gain": 23.278600692749023, "threshold": 103.00000000000001, "decision_type": "<=", "default_left": true, "missing_type": "NaN", "internal_value": 2.10325, "internal_count": 248, "left_child": {"split_index": 10, "split_feature": 195, "split_gain": 16.155899047851562, "threshold": 116.75000000000001, "decision_type": "<=", "default_left": true, "missing_type": "NaN", "internal_value": 1.39497, "internal_count": 201, "left_child": {"split_index": 14, "split_feature": 38, "split_gain": 13.727299690246582, "threshold": 108.58333333333336, "decision_type": "<=", "default_left": false, "missing_type": "NaN", "internal_value": 1.00219, "internal_count": 180, "left_child": {"split_index": 18, "split_feature": 133, "split_gain": 8.452659606933594, "threshold": 186.75000000000003, "decision_type": "<=", "default_left": false, "missing_type": "NaN", "internal_value": 2.91986, "internal_count": 43, "left_child": {"leaf_index": 3, "leaf_value": 0.04102951342824646, "leaf_count": 20}, "right_child": {"leaf_index": 19, "leaf_value": 0.44184787664774317, "leaf_count": 23}}, "right_child": {"split_index": 21, "split_feature": 180, "split_gain": 5.165060043334961, "threshold": 77.83333333333336, "decision_type": "<=", "default_left": true, "missing_type": "NaN", "internal_value": -0.265125, "internal_count": 137, "left_child": {"leaf_index": 15, "leaf_value": 0.15705704934496206, "leaf_count": 28}, "right_child": {"leaf_index": 22, "leaf_value": -0.10924604766365893, "leaf_count": 109}}}, "right_child": {"leaf_index": 11, "leaf_value": 0.8284161704550599, "leaf_count": 21}}, "right_child": {"split_index": 6, "split_feature": 180, "split_gain": 34.93349838256836, "threshold": 140.3666666666667, "decision_type": "<=", "default_left": true, "missing_type": "NaN", "internal_value": 6.89983, "internal_count": 47, "left_child": {"leaf_index": 6, "leaf_value": 1.1905763878880042, "leaf_count": 20}, "right_child": {"leaf_index": 7, "leaf_value": -0.1015678638317374, "leaf_count": 27}}}, "right_child": {"split_index": 4, "split_feature": 154, "split_gain": 24.28380012512207, "threshold": 1957.5000000000002, "decision_type": "<=", "default_left": false, "missing_type": "NaN", "internal_value": 7.7331, "internal_count": 52, "left_child": {"leaf_index": 4, "leaf_value": 0.31898781337924204, "leaf_count": 20}, "right_child": {"leaf_index": 5, "leaf_value": 1.088122245623103, "leaf_count": 32}}}}, "right_child": {"split_index": 15, "split_feature": 169, "split_gain": 12.836600303649902, "threshold": 2186.5000000000005, "decision_type": "<=", "default_left": true, "missing_type": "NaN", "internal_value": -0.600342, "internal_count": 917, "left_child": {"split_index": 19, "split_feature": 109, "split_gain": 7.996150016784668, "threshold": 125.12500000000001, "decision_type": "<=", "default_left": false, "missing_type": "NaN", "internal_value": -0.749336, "internal_count": 897, "left_child": {"split_index": 22, "split_feature": 76, "split_gain": 5.064630031585693, "threshold": 171.90000000000003, "decision_type": "<=", "default_left": true, "missing_type": "NaN", "internal_value": 1.14679, "internal_count": 53, "left_child": {"leaf_index": 2, "leaf_value": -0.05967157901823951, "leaf_count": 33}, "right_child": {"leaf_index": 23, "leaf_value": 0.26828700058017346, "leaf_count": 20}}, "right_child": {"leaf_index": 20, "leaf_value": -0.10832073714861623, "leaf_count": 844}}, "right_child": {"leaf_index": 16, "leaf_value": 0.6071627047463894, "leaf_count": 20}}}}}, {"tree_index": 2, "num_leaves": 31, "num_cat": 0, "shrinkage": 0.1, "tree_structure": {"split_index": 0, "split_feature": 47, "split_gain": 27.550100326538086, "threshold": 192.50000000000003, "decision_type": "<=", "default_left": true, "missing_type": "NaN", "internal_value": 0, "internal_count": 8066, "left_child": {"split_index": 5, "split_feature": 49, "split_gain": 16.491199493408203, "threshold": 92.70000000000002, "decision_type": "<=", "default_left": false, "missing_type": "NaN", "internal_value": -0.635455, "internal_count": 6691, "left_child": {"split_index": 6, "split_feature": 159, "split_gain": 15.62399959564209, "threshold": 2562.5000000000005, "decision_type": "<=", "default_left": true, "missing_type": "NaN", "internal_value": 0.66821, "internal_count": 442, "left_child": {"split_index": 13, "split_feature": 121, "split_gain": 10.083200454711914, "threshold": 185.50000000000003, "decision_type": "<=", "default_left": true, "missing_type": "NaN", "internal_value": 0.0689897, "internal_count": 412, "left_child": {"split_index": 20, "split_feature": 90, "split_gain": 4.964099884033203, "threshold": 196.4166666666667, "decision_type": "<=", "default_left": true, "missing_type": "NaN", "internal_value": -0.316561, "internal_count": 392, "left_child": {"leaf_index": 0, "leaf_value": -0.07456093365282881, "leaf_count": 357}, "right_child": {"leaf_index": 21, "leaf_value": 0.14478073117161816, "leaf_count": 35}}, "right_child": {"leaf_index": 14, "leaf_value": 0.3671573553110996, "leaf_count": 20}}, "right_child": {"leaf_index": 7, "leaf_value": 0.3660724159012812, "leaf_count": 30}}, "right_child": {"split_index": 9, "split_feature": 113, "split_gain": 10.920599937438965, "threshold": 187.25000000000003, "decision_type": "<=", "default_left": false, "missing_type": "NaN", "internal_value": -0.783621, "internal_count": 6249, "left_child": {"split_index": 10, "split_feature": 177, "split_gain": 20.795299530029297, "threshold": 358.50000000000006, "decision_type": "<=", "default_left": true, "missing_type": "NaN", "internal_value": 0.56069, "internal_count": 360, "left_child": {"split_index": 11, "split_feature": 129, "split_gain": 12.609999656677246, "threshold": 202.50000000000003, "decision_type": "<=", "default_left": true, "missing_type": "NaN", "internal_value": -0.211023, "internal_count": 336, "left_child": {"split_index": 19, "split_feature": 44, "split_gain": 6.266190052032471, "threshold": 253.50000000000003, "decision_type": "<=", "default_left": true, "missing_type": "NaN", "internal_value": -0.602163, "internal_count": 316, "left_child": {"leaf_index": 6, "leaf_value": -0.10286929324017113, "leaf_count": 294}, "right_child": {"leaf_index": 20, "leaf_value": 0.2619565271431627, "leaf_count": 22}}, "right_child": {"leaf_index": 12, "leaf_value": 0.6467826150815659, "leaf_count": 20}}, "right_child": {"leaf_index": 11, "leaf_value": 0.5371465812089387, "leaf_count": 24}}, "right_child": {"split_index": 16, "split_feature": 98, "split_gain": 7.740990161895752, "threshold": 245.50000000000003, "decision_type": "<=", "default_left": true, "missing_type": "NaN", "internal_value": -0.889586, "internal_count": 5889, "left_child": {"split_index": 22, "split_feature": 112, "split_gain": 2.9193599224090576, "threshold": 249.75000000000003, "decision_type": "<=", "default_left": true, "missing_type": "NaN", "internal_value": -0.962741, "internal_count": 5679, "left_child": {"split_index": 24, "split_feature": 152, "split_gain": 3.2642099857330322, "threshold": 3264.2500000000005, "decision_type": "<=", "default_left": true, "missing_type": "NaN", "internal_value": -1.01259, "internal_count": 5377, "left_child": {"split_index": 25, "split_feature": 67, "split_gain": 2.4279398918151855, "threshold": 81.75000000000001, "decision_type": "<=", "default_left": false, "missing_type": "NaN", "internal_value": -1.02826, "internal_count": 5357, "left_child": {"leaf_index": 10, "leaf_value": -0.2566215055742058, "leaf_count": 47}, "right_child": {"split_index": 28, "split_feature": 22, "split_gain": 1.5651099681854248, "threshold": 464.25000000000006, "decision_type": "<=", "default_left": true, "missing_type": "NaN", "internal_value": -1.00349, "internal_count": 5310, "left_child": {"leaf_index": 26, "leaf_value": -0.10426695628505143, "leaf_count": 5027}, "right_child": {"split_index": 29, "split_feature": 109, "split_gain": 8.737449645996094, "threshold": 118.41666666666667, "decision_type": "<=", "default_left": false, "missing_type": "NaN", "internal_value": -0.366606, "internal_count": 283, "left_child": {"leaf_index": 29, "leaf_value": 0.41608852811363994, "leaf_count": 20}, "right_child": {"leaf_index": 30, "leaf_value": -0.08975289336758589, "leaf_count": 263}}}}, "right_child": {"leaf_index": 25, "leaf_value": 0.22397985760221567, "leaf_count": 20}}, "right_child": {"split_index": 23, "split_feature": 169, "split_gain": 13.678400039672852, "threshold": 842.1250000000001, "decision_type": "<=", "default_left": true, "missing_type": "NaN", "internal_value": -0.0981114, "internal_count": 302, "left_child": {"leaf_index": 23, "leaf_value": -0.08802975748551226, "leaf_count": 274}, "right_child": {"leaf_index": 24, "leaf_value": 0.46381972950374006, "leaf_count": 28}}}, "right_child": {"split_index": 17, "split_feature": 198, "split_gain": 11.961299896240234, "threshold": 140.1666666666667, "decision_type": "<=", "default_left": false, "missing_type": "NaN", "internal_value": 0.599504, "internal_count": 210, "left_child": {"leaf_index": 17, "leaf_value": 0.28322431166946765, "leaf_count": 20}, "right_child": {"leaf_index": 18, "leaf_value": -0.10104469313133418, "leaf_count": 190}}}}}, "right_child": {"split_index": 1, "split_feature": 49, "split_gain": 29.252399444580078, "threshold": 135.08333333333334, "decision_type": "<=", "default_left": true, "missing_type": "NaN", "internal_value": 0.543335, "internal_count": 1375, "left_child": {"split_index": 2, "split_feature": 133, "split_gain": 20.513900756835938, "threshold": 167.62500000000003, "decision_type": "<=", "default_left": false, "missing_type": "NaN", "internal_value": 1.54816, "internal_count": 458, "left_child": {"split_index": 26, "split_feature": 180, "split_gain": 1.9809099435806274, "threshold": 97.58333333333336, "decision_type": "<=", "default_left": false, "missing_type": "NaN", "internal_value": -0.644347, "internal_count": 142, "left_child": {"leaf_index": 1, "leaf_value": 0.08104667599503736, "leaf_count": 20}, "right_child": {"leaf_index": 27, "leaf_value": -0.10631484406396166, "leaf_count": 122}}, "right_child": {"split_index": 3, "split_feature": 124, "split_gain": 17.298900604248047, "threshold": 258.9166666666667, "decision_type": "<=", "default_left": true, "missing_type": "NaN", "internal_value": 2.23342, "internal_count": 316, "left_child": {"split_index": 4, "split_feature": 64, "split_gain": 19.987499237060547, "threshold": 109.58333333333336, "decision_type": "<=", "default_left": true, "missing_type": "NaN", "internal_value": 2.8584300000000002, "internal_count": 225, "left_child": {"split_index": 12, "split_feature": 122, "split_gain": 10.77280044555664, "threshold": 202.83333333333334, "decision_type": "<=", "default_left": true, "missing_type": "NaN", "internal_value": 0.922676, "internal_count": 117, "left_child": {"leaf_index": 3, "leaf_value": -0.10456095351189115, "leaf_count": 88}, "right_child": {"leaf_index": 13, "leaf_value": 0.25984944007338223, "leaf_count": 29}}, "right_child": {"split_index": 7, "split_feature": 198, "split_gain": 14.092300415039062, "threshold": 223.83333333333334, "decision_type": "<=", "default_left": true, "missing_type": "NaN", "internal_value": 4.08419, "internal_count": 108, "left_child": {"split_index": 8, "split_feature": 173, "split_gain": 10.995400428771973, "threshold": 130.1666666666667, "decision_type": "<=", "default_left": false, "missing_type": "NaN", "internal_value": 4.61491, "internal_count": 81, "left_child": {"leaf_index": 5, "leaf_value": 0.7475371028441655, "leaf_count": 20}, "right_child": {"split_index": 15, "split_feature": 64, "split_gain": 7.878489971160889, "threshold": 140.3666666666667, "decision_type": "<=", "default_left": true, "missing_type": "NaN", "internal_value": 3.7928100000000002, "internal_count": 61, "left_child": {"leaf_index": 9, "leaf_value": 0.4864655800862058, "leaf_count": 32}, "right_child": {"leaf_index": 16, "leaf_value": 0.1768966286538728, "leaf_count": 29}}}, "right_child": {"leaf_index": 8, "leaf_value": -0.10639684881200523, "leaf_count": 27}}}, "right_child": {"split_index": 27, "split_feature": 112, "split_gain": 1.9224599599838257, "threshold": 343.50000000000006, "decision_type": "<=", "default_left": false, "missing_type": "NaN", "internal_value": -0.427299, "internal_count": 91, "left_child": {"leaf_index": 4, "leaf_value": 0.11364861467354584, "leaf_count": 20}, "right_child": {"leaf_index": 28, "leaf_value": -0.10485877243938756, "leaf_count": 71}}}}, "right_child": {"split_index": 14, "split_feature": 109, "split_gain": 9.752280235290527, "threshold": 125.12500000000001, "decision_type": "<=", "default_left": false, "missing_type": "NaN", "internal_value": -0.583993, "internal_count": 917, "left_child": {"split_index": 18, "split_feature": 158, "split_gain": 7.533909797668457, "threshold": 155.75000000000003, "decision_type": "<=", "default_left": true, "missing_type": "NaN", "internal_value": 1.42564, "internal_count": 54, "left_child": {"leaf_index": 2, "leaf_value": -0.04157906335001179, "leaf_count": 34}, "right_child": {"leaf_index": 19, "leaf_value": 0.3456128740927642, "leaf_count": 20}}, "right_child": {"split_index": 21, "split_feature": 152, "split_gain": 4.605460166931152, "threshold": 128.75000000000003, "decision_type": "<=", "default_left": false, "missing_type": "NaN", "internal_value": -0.98274, "internal_count": 863, "left_child": {"leaf_index": 15, "leaf_value": 0.35534916824101503, "leaf_count": 20}, "right_child": {"leaf_index": 22, "leaf_value": -0.1082715637494502, "leaf_count": 843}}}}}}, {"tree_index": 3, "num_leaves": 31, "num_cat": 0, "shrinkage": 0.1, "tree_structure": {"split_index": 0, "split_feature": 76, "split_gain": 25.570999145507812, "threshold": 185.00000000000003, "decision_type": "<=", "default_left": false, "missing_type": "NaN", "internal_value": 0, "internal_count": 8066, "left_child": {"leaf_index": 0, "leaf_value": -0.10431814398826628, "leaf_count": 3392}, "right_child": {"split_index": 1, "split_feature": 125, "split_gain": 35.32699966430664, "threshold": 186.50000000000003, "decision_type": "<=", "default_left": false, "missing_type": "NaN", "internal_value": -0.00593456, "internal_count": 4674, "left_child": {"split_index": 3, "split_feature": 122, "split_gain": 20.306900024414062, "threshold": 196.4166666666667, "decision_type": "<=", "default_left": false, "missing_type": "NaN", "internal_value": 1.22049, "internal_count": 770, "left_child": {"split_index": 26, "split_feature": 139, "split_gain": 4.30334997177124, "threshold": 233.75000000000003, "decision_type": "<=", "default_left": true, "missing_type": "NaN", "internal_value": -0.74031, "internal_count": 260, "left_child": {"leaf_index": 1, "leaf_value": -0.12071360418772673, "leaf_count": 238}, "right_child": {"leaf_index": 27, "leaf_value": 0.1526152227019384, "leaf_count": 22}}, "right_child": {"split_index": 4, "split_feature": 169, "split_gain": 18.281099319458008, "threshold": 1640.6666666666667, "decision_type": "<=", "default_left": true, "missing_type": "NaN", "internal_value": 1.80598, "internal_count": 510, "left_child": {"split_index": 5, "split_feature": 133, "split_gain": 18.14459991455078, "threshold": 165.00000000000003, "decision_type": "<=", "default_left": false, "missing_type": "NaN", "internal_value": 1.5563, "internal_count": 490, "left_child": {"leaf_index": 4, "leaf_value": -0.10424869640111288, "leaf_count": 168}, "right_child": {"split_index": 8, "split_feature": 159, "split_gain": 13.806300163269043, "threshold": 187.12500000000003, "decision_type": "<=", "default_left": false, "missing_type": "NaN", "internal_value": 2.09268, "internal_count": 322, "left_child": {"leaf_index": 6, "leaf_value": -0.1291703127772071, "leaf_count": 50}, "right_child": {"split_index": 11, "split_feature": 153, "split_gain": 12.546600341796875, "threshold": 383.75000000000006, "decision_type": "<=", "default_left": false, "missing_type": "NaN", "internal_value": 2.47076, "internal_count": 272, "left_child": {"leaf_index": 9, "leaf_value": -0.10883287503204925, "leaf_count": 46}, "right_child": {"split_index": 13, "split_feature": 180, "split_gain": 10.05519962310791, "threshold": 140.87500000000003, "decision_type": "<=", "default_left": true, "missing_type": "NaN", "internal_value": 2.83398, "internal_count": 226, "left_child": {"split_index": 17, "split_feature": 42, "split_gain": 5.829170227050781, "threshold": 210.75000000000003, "decision_type": "<=", "default_left": true, "missing_type": "NaN", "internal_value": 3.32582, "internal_count": 123, "left_child": {"split_index": 18, "split_feature": 103, "split_gain": 6.4108500480651855, "threshold": 124.25000000000001, "decision_type": "<=", "default_left": false, "missing_type": "NaN", "internal_value": 3.50944, "internal_count": 103, "left_child": {"leaf_index": 12, "leaf_value": 0.15238616031265528, "leaf_count": 24}, "right_child": {"split_index": 19, "split_feature": 118, "split_gain": 4.653180122375488, "threshold": 174.00000000000003, "decision_type": "<=", "default_left": false, "missing_type": "NaN", "internal_value": 3.9724, "internal_count": 79, "left_child": {"leaf_index": 19, "leaf_value": 0.24573576201335723, "leaf_count": 23}, "right_child": {"split_index": 20, "split_feature": 198, "split_gain": 10.523200035095215, "threshold": 218.1666666666667, "decision_type": "<=", "default_left": false, "missing_type": "NaN", "internal_value": 4.51548, "internal_count": 56, "left_child": {"leaf_index": 20, "leaf_value": 0.3394489293711664, "leaf_count": 25}, "right_child": {"leaf_index": 21, "leaf_value": 0.6770399314146852, "leaf_count": 31}}}}, "right_child": {"leaf_index": 18, "leaf_value": -0.10427464966782932, "leaf_count": 20}}, "right_child": {"split_index": 25, "split_feature": 88, "split_gain": 4.401800155639648, "threshold": 234.25000000000003, "decision_type": "<=", "default_left": false, "missing_type": "NaN", "internal_value": 0.512589, "internal_count": 103, "left_child": {"leaf_index": 14, "leaf_value": 0.23869373031340457, "leaf_count": 20}, "right_child": {"leaf_index": 26, "leaf_value": -0.10126638902034074, "leaf_count": 83}}}}}}, "right_child": {"leaf_index": 5, "leaf_value": 0.7181306990901688, "leaf_count": 20}}}, "right_child": {"split_index": 2, "split_feature": 38, "split_gain": 21.011199951171875, "threshold": 124.16666666666667, "decision_type": "<=", "default_left": false, "missing_type": "NaN", "internal_value": -0.407944, "internal_count": 3904, "left_child": {"split_index": 6, "split_feature": 89, "split_gain": 15.975299835205078, "threshold": 110.50000000000001, "decision_type": "<=", "default_left": true, "missing_type": "NaN", "internal_value": 0.573801, "internal_count": 858, "left_child": {"split_index": 9, "split_feature": 69, "split_gain": 12.944700241088867, "threshold": 261.25000000000006, "decision_type": "<=", "default_left": true, "missing_type": "NaN", "internal_value": -0.0725483, "internal_count": 644, "left_child": {"split_index": 16, "split_feature": 49, "split_gain": 5.844560146331787, "threshold": 93.53571428571429, "decision_type": "<=", "default_left": false, "missing_type": "NaN", "internal_value": -0.393351, "internal_count": 617, "left_child": {"split_index": 21, "split_feature": 47, "split_gain": 4.460720062255859, "threshold": 203.12500000000003, "decision_type": "<=", "default_left": false, "missing_type": "NaN", "internal_value": 0.85714, "internal_count": 85, "left_child": {"leaf_index": 2, "leaf_value": -0.10414538723881517, "leaf_count": 48}, "right_child": {"leaf_index": 22, "leaf_value": 0.1717186446119207, "leaf_count": 37}}, "right_child": {"leaf_index": 17, "leaf_value": -0.08537409270820942, "leaf_count": 532}}, "right_child": {"leaf_index": 10, "leaf_value": 0.3581369029611998, "leaf_count": 27}}, "right_child": {"split_index": 7, "split_feature": 174, "split_gain": 14.806099891662598, "threshold": 171.90000000000003, "decision_type": "<=", "default_left": true, "missing_type": "NaN", "internal_value": 2.1656, "internal_count": 214, "left_child": {"split_index": 10, "split_feature": 198, "split_gain": 12.750699996948242, "threshold": 140.1666666666667, "decision_type": "<=", "default_left": false, "missing_type": "NaN", "internal_value": 1.00782, "internal_count": 162, "left_child": {"leaf_index": 7, "leaf_value": 0.34983362976012516, "leaf_count": 26}, "right_child": {"leaf_index": 11, "leaf_value": -0.05974212534084449, "leaf_count": 136}}, "right_child": {"split_index": 12, "split_feature": 57, "split_gain": 12.218000411987305, "threshold": 164.25000000000003, "decision_type": "<=", "default_left": false, "missing_type": "NaN", "internal_value": 5.01757, "internal_count": 52, "left_child": {"leaf_index": 8, "leaf_value": 0.8070312239261999, "leaf_count": 20}, "right_child": {"leaf_index": 13, "leaf_value": 0.192634444397278, "leaf_count": 32}}}}, "right_child": {"split_index": 14, "split_feature": 157, "split_gain": 7.485469818115234, "threshold": 1983.0000000000002, "decision_type": "<=", "default_left": true, "missing_type": "NaN", "internal_value": -0.804542, "internal_count": 3046, "left_child": {"split_index": 22, "split_feature": 4, "split_gain": 4.4582600593566895, "threshold": 117.25000000000001, "decision_type": "<=", "default_left": false, "missing_type": "NaN", "internal_value": -0.885085, "internal_count": 2983, "left_child": {"split_index": 27, "split_feature": 115, "split_gain": 3.0036399364471436, "threshold": 168.25000000000003, "decision_type": "<=", "default_left": true, "missing_type": "NaN", "internal_value": 1.5507, "internal_count": 45, "left_child": {"leaf_index": 3, "leaf_value": -0.10136044742370331, "leaf_count": 25}, "right_child": {"leaf_index": 28, "leaf_value": 0.31409947986427206, "leaf_count": 20}}, "right_child": {"split_index": 23, "split_feature": 126, "split_gain": 4.590429782867432, "threshold": 120.50000000000001, "decision_type": "<=", "default_left": false, "missing_type": "NaN", "internal_value": -0.934291, "internal_count": 2938, "left_child": {"split_index": 24, "split_feature": 175, "split_gain": 5.207699775695801, "threshold": 174.33333333333334, "decision_type": "<=", "default_left": false, "missing_type": "NaN", "internal_value": 0.500881, "internal_count": 123, "left_child": {"leaf_index": 23, "leaf_value": 0.25763529332632934, "leaf_count": 29}, "right_child": {"leaf_index": 25, "leaf_value": -0.06937960165802672, "leaf_count": 94}}, "right_child": {"split_index": 28, "split_feature": 134, "split_gain": 2.923029899597168, "threshold": 608.5000000000001, "decision_type": "<=", "default_left": true, "missing_type": "NaN", "internal_value": -1.02202, "internal_count": 2815, "left_child": {"split_index": 29, "split_feature": 63, "split_gain": 2.3714699745178223, "threshold": 464.00000000000006, "decision_type": "<=", "default_left": true, "missing_type": "NaN", "internal_value": -1.05066, "internal_count": 2795, "left_child": {"leaf_index": 24, "leaf_value": -0.10789414265102243, "leaf_count": 2773}, "right_child": {"leaf_index": 30, "leaf_value": 0.14133896583247882, "leaf_count": 22}}, "right_child": {"leaf_index": 29, "leaf_value": 0.1947692751237765, "leaf_count": 20}}}}, "right_child": {"split_index": 15, "split_feature": 147, "split_gain": 5.94228982925415, "threshold": 296.25000000000006, "decision_type": "<=", "default_left": false, "missing_type": "NaN", "internal_value": 1.6134300000000001, "internal_count": 63, "left_child": {"leaf_index": 15, "leaf_value": 0.34325152284761634, "leaf_count": 20}, "right_child": {"leaf_index": 16, "leaf_value": -0.10229854127684404, "leaf_count": 43}}}}}}}, {"tree_index": 4, "num_leaves": 31, "num_cat": 0, "shrinkage": 0.1, "tree_structure": {"split_index": 0, "split_feature": 76, "split_gain": 23.07900047302246, "threshold": 185.00000000000003, "decision_type": "<=", "default_left": false, "missing_type": "NaN", "internal_value": 0, "internal_count": 8066, "left_child": {"leaf_index": 0, "leaf_value": -0.10422749859923633, "leaf_count": 3392}, "right_child": {"split_index": 1, "split_feature": 125, "split_gain": 27.160499572753906, "threshold": 186.50000000000003, "decision_type": "<=", "default_left": false, "missing_type": "NaN", "internal_value": -0.0202643, "internal_count": 4674, "left_child": {"split_index": 4, "split_feature": 122, "split_gain": 14.387999534606934, "threshold": 171.58333333333334, "decision_type": "<=", "default_left": false, "missing_type": "NaN", "internal_value": 1.01488, "internal_count": 770, "left_child": {"leaf_index": 1, "leaf_value": -0.12304241396375193, "leaf_count": 207}, "right_child": {"split_index": 5, "split_feature": 133, "split_gain": 12.707099914550781, "threshold": 140.58333333333334, "decision_type": "<=", "default_left": false, "missing_type": "NaN", "internal_value": 1.35873, "internal_count": 563, "left_child": {"leaf_index": 5, "leaf_value": -0.10403326725131237, "leaf_count": 149}, "right_child": {"split_index": 6, "split_feature": 159, "split_gain": 13.986000061035156, "threshold": 187.12500000000003, "decision_type": "<=", "default_left": false, "missing_type": "NaN", "internal_value": 1.68647, "internal_count": 414, "left_child": {"leaf_index": 6, "leaf_value": -0.12002588941919073, "leaf_count": 66}, "right_child": {"split_index": 9, "split_feature": 153, "split_gain": 9.365139961242676, "threshold": 331.75000000000006, "decision_type": "<=", "default_left": false, "missing_type": "NaN", "internal_value": 2.02722, "internal_count": 348, "left_child": {"leaf_index": 7, "leaf_value": -0.1073886837632073, "leaf_count": 54}, "right_child": {"split_index": 12, "split_feature": 125, "split_gain": 7.226709842681885, "threshold": 95.00000000000001, "decision_type": "<=", "default_left": true, "missing_type": "NaN", "internal_value": 2.26469, "internal_count": 294, "left_child": {"leaf_index": 10, "leaf_value": -0.07419181638048486, "leaf_count": 42}, "right_child": {"split_index": 13, "split_feature": 137, "split_gain": 7.499199867248535, "threshold": 133.25000000000003, "decision_type": "<=", "default_left": true, "missing_type": "NaN", "internal_value": 2.46816, "internal_count": 252, "left_child": {"split_index": 17, "split_feature": 35, "split_gain": 5.322140216827393, "threshold": 184.4166666666667, "decision_type": "<=", "default_left": true, "missing_type": "NaN", "internal_value": 2.76836, "internal_count": 187, "left_child": {"split_index": 18, "split_feature": 174, "split_gain": 7.839849948883057, "threshold": 187.10000000000002, "decision_type": "<=", "default_left": false, "missing_type": "NaN", "internal_value": 2.4989, "internal_count": 163, "left_child": {"split_index": 21, "split_feature": 41, "split_gain": 3.2421000003814697, "threshold": 136.25000000000003, "decision_type": "<=", "default_left": true, "missing_type": "NaN", "internal_value": 2.8024, "internal_count": 115, "left_child": {"split_index": 25, "split_feature": 109, "split_gain": 2.615259885787964, "threshold": 173.62500000000003, "decision_type": "<=", "default_left": false, "missing_type": "NaN", "internal_value": 2.94774, "internal_count": 95, "left_child": {"split_index": 27, "split_feature": 160, "split_gain": 2.3579399585723877, "threshold": 165.00000000000003, "decision_type": "<=", "default_left": true, "missing_type": "NaN", "internal_value": 3.49102, "internal_count": 43, "left_child": {"leaf_index": 13, "leaf_value": 0.42778673036131487, "leaf_count": 20}, "right_child": {"leaf_index": 28, "leaf_value": 0.2750347158285187, "leaf_count": 23}}, "right_child": {"split_index": 26, "split_feature": 38, "split_gain": 3.1707799434661865, "threshold": 136.97500000000002, "decision_type": "<=", "default_left": false, "missing_type": "NaN", "internal_value": 2.30121, "internal_count": 52, "left_child": {"leaf_index": 26, "leaf_value": 0.25827398938000773, "leaf_count": 26}, "right_child": {"leaf_index": 27, "leaf_value": -0.10115675021392641, "leaf_count": 26}}}, "right_child": {"leaf_index": 22, "leaf_value": -0.004828678898778808, "leaf_count": 20}}, "right_child": {"leaf_index": 19, "leaf_value": -0.04986043405287418, "leaf_count": 48}}, "right_child": {"leaf_index": 18, "leaf_value": 0.47908906539323076, "leaf_count": 24}}, "right_child": {"leaf_index": 14, "leaf_value": 0.02103212650944552, "leaf_count": 65}}}}}}}, "right_child": {"split_index": 2, "split_feature": 38, "split_gain": 18.405899047851562, "threshold": 124.16666666666667, "decision_type": "<=", "default_left": true, "missing_type": "NaN", "internal_value": -0.393069, "internal_count": 3904, "left_child": {"split_index": 3, "split_feature": 80, "split_gain": 20.095300674438477, "threshold": 129.83333333333334, "decision_type": "<=", "default_left": false, "missing_type": "NaN", "internal_value": 0.201243, "internal_count": 1594, "left_child": {"split_index": 8, "split_feature": 115, "split_gain": 9.758930206298828, "threshold": 210.75000000000003, "decision_type": "<=", "default_left": true, "missing_type": "NaN", "internal_value": 1.80494, "internal_count": 164, "left_child": {"split_index": 15, "split_feature": 42, "split_gain": 6.147580146789551, "threshold": 180.83333333333334, "decision_type": "<=", "default_left": true, "missing_type": "NaN", "internal_value": 0.77027, "internal_count": 137, "left_child": {"leaf_index": 2, "leaf_value": -0.056569420941918525, "leaf_count": 95}, "right_child": {"split_index": 22, "split_feature": 198, "split_gain": 2.991420030593872, "threshold": 140.1666666666667, "decision_type": "<=", "default_left": false, "missing_type": "NaN", "internal_value": 2.04121, "internal_count": 42, "left_child": {"leaf_index": 16, "leaf_value": 0.2774815538515296, "leaf_count": 20}, "right_child": {"leaf_index": 23, "leaf_value": -0.015646652977398527, "leaf_count": 22}}}, "right_child": {"leaf_index": 9, "leaf_value": 0.33753321275813475, "leaf_count": 27}}, "right_child": {"split_index": 7, "split_feature": 69, "split_gain": 10.534000396728516, "threshold": 252.00000000000003, "decision_type": "<=", "default_left": true, "missing_type": "NaN", "internal_value": -0.281378, "internal_count": 1430, "left_child": {"split_index": 10, "split_feature": 150, "split_gain": 8.003399848937988, "threshold": 829.5000000000001, "decision_type": "<=", "default_left": true, "missing_type": "NaN", "internal_value": -0.507345, "internal_count": 1354, "left_child": {"split_index": 14, "split_feature": 66, "split_gain": 6.430960178375244, "threshold": 309.50000000000006, "decision_type": "<=", "default_left": true, "missing_type": "NaN", "internal_value": -0.919958, "internal_count": 1087, "left_child": {"leaf_index": 4, "leaf_value": -0.10723939878262326, "leaf_count": 1049}, "right_child": {"leaf_index": 15, "leaf_value": 0.2295858209128937, "leaf_count": 38}}, "right_child": {"split_index": 16, "split_feature": 198, "split_gain": 6.064640045166016, "threshold": 164.25000000000003, "decision_type": "<=", "default_left": false, "missing_type": "NaN", "internal_value": 0.558581, "internal_count": 267, "left_child": {"split_index": 19, "split_feature": 133, "split_gain": 4.287499904632568, "threshold": 140.10000000000002, "decision_type": "<=", "default_left": false, "missing_type": "NaN", "internal_value": 1.71103, "internal_count": 58, "left_child": {"leaf_index": 11, "leaf_value": -0.1052062972593362, "leaf_count": 23}, "right_child": {"leaf_index": 20, "leaf_value": 0.23564018272402174, "leaf_count": 35}}, "right_child": {"split_index": 29, "split_feature": 120, "split_gain": 1.7192399501800537, "threshold": 111.50000000000001, "decision_type": "<=", "default_left": false, "missing_type": "NaN", "internal_value": -0.477682, "internal_count": 209, "left_child": {"leaf_index": 17, "leaf_value": 0.07212700246321045, "leaf_count": 21}, "right_child": {"leaf_index": 30, "leaf_value": -0.10139573833595983, "leaf_count": 188}}}}, "right_child": {"split_index": 11, "split_feature": 157, "split_gain": 7.395909786224365, "threshold": 421.75000000000006, "decision_type": "<=", "default_left": false, "missing_type": "NaN", "internal_value": 2.05444, "internal_count": 76, "left_child": {"leaf_index": 8, "leaf_value": 0.5538520702372233, "leaf_count": 20}, "right_child": {"split_index": 28, "split_feature": 184, "split_gain": 2.1010899543762207, "threshold": 327.25000000000006, "decision_type": "<=", "default_left": false, "missing_type": "NaN", "internal_value": 0.848591, "internal_count": 56, "left_child": {"leaf_index": 12, "leaf_value": 0.1711326201467452, "leaf_count": 20}, "right_child": {"leaf_index": 29, "leaf_value": -0.1013636338525886, "leaf_count": 36}}}}}, "right_child": {"split_index": 20, "split_feature": 164, "split_gain": 3.7586801052093506, "threshold": 2363.5000000000005, "decision_type": "<=", "default_left": true, "missing_type": "NaN", "internal_value": -0.991579, "internal_count": 2310, "left_child": {"split_index": 23, "split_feature": 157, "split_gain": 2.9127299785614014, "threshold": 1201.2500000000002, "decision_type": "<=", "default_left": true, "missing_type": "NaN", "internal_value": -1.03033, "internal_count": 2290, "left_child": {"leaf_index": 3, "leaf_value": -0.1119290654805125, "leaf_count": 2189}, "right_child": {"split_index": 24, "split_feature": 148, "split_gain": 3.763469934463501, "threshold": 461.5833333333334, "decision_type": "<=", "default_left": true, "missing_type": "NaN", "internal_value": 0.252697, "internal_count": 101, "left_child": {"leaf_index": 24, "leaf_value": -0.10412505626467639, "leaf_count": 81}, "right_child": {"leaf_index": 25, "leaf_value": 0.20104497075071892, "leaf_count": 20}}}, "right_child": {"leaf_index": 21, "leaf_value": 0.27707663764509877, "leaf_count": 20}}}}}}, {"tree_index": 5, "num_leaves": 31, "num_cat": 0, "shrinkage": 0.1, "tree_structure": {"split_index": 0, "split_feature": 76, "split_gain": 20.969499588012695, "threshold": 185.00000000000003, "decision_type": "<=", "default_left": false, "missing_type": "NaN", "internal_value": 0, "internal_count": 8066, "left_child": {"leaf_index": 0, "leaf_value": -0.10413967022211204, "leaf_count": 3392}, "right_child": {"split_index": 1, "split_feature": 125, "split_gain": 21.79170036315918, "threshold": 186.50000000000003, "decision_type": "<=", "default_left": false, "missing_type": "NaN", "internal_value": -0.0280938, "internal_count": 4674, "left_child": {"split_index": 4, "split_feature": 107, "split_gain": 11.554499626159668, "threshold": 206.50000000000003, "decision_type": "<=", "default_left": false, "missing_type": "NaN", "internal_value": 0.878882, "internal_count": 770, "left_child": {"leaf_index": 1, "leaf_value": -0.1583212274718274, "leaf_count": 118}, "right_child": {"split_index": 5, "split_feature": 133, "split_gain": 11.037099838256836, "threshold": 140.58333333333334, "decision_type": "<=", "default_left": false, "missing_type": "NaN", "internal_value": 1.12492, "internal_count": 652, "left_child": {"leaf_index": 5, "leaf_value": -0.103488754631325, "leaf_count": 179}, "right_child": {"split_index": 6, "split_feature": 125, "split_gain": 8.310079574584961, "threshold": 95.00000000000001, "decision_type": "<=", "default_left": true, "missing_type": "NaN", "internal_value": 1.4196, "internal_count": 473, "left_child": {"leaf_index": 6, "leaf_value": -0.08859178883255706, "leaf_count": 84}, "right_child": {"split_index": 7, "split_feature": 47, "split_gain": 8.554800033569336, "threshold": 142.00000000000003, "decision_type": "<=", "default_left": false, "missing_type": "NaN", "internal_value": 1.65581, "internal_count": 389, "left_child": {"leaf_index": 7, "leaf_value": -0.10407430843865367, "leaf_count": 83}, "right_child": {"split_index": 12, "split_feature": 153, "split_gain": 5.9717698097229, "threshold": 331.75000000000006, "decision_type": "<=", "default_left": false, "missing_type": "NaN", "internal_value": 1.88502, "internal_count": 306, "left_child": {"leaf_index": 8, "leaf_value": -0.06443170727970357, "leaf_count": 47}, "right_child": {"split_index": 16, "split_feature": 122, "split_gain": 4.7028398513793945, "threshold": 171.58333333333334, "decision_type": "<=", "default_left": false, "missing_type": "NaN", "internal_value": 2.07009, "internal_count": 259, "left_child": {"leaf_index": 13, "leaf_value": -0.10109359958810643, "leaf_count": 54}, "right_child": {"split_index": 17, "split_feature": 174, "split_gain": 4.454480171203613, "threshold": 98.83333333333336, "decision_type": "<=", "default_left": false, "missing_type": "NaN", "internal_value": 2.1985, "internal_count": 205, "left_child": {"split_index": 28, "split_feature": 120, "split_gain": 1.9033600091934204, "threshold": 98.04166666666667, "decision_type": "<=", "default_left": true, "missing_type": "NaN", "internal_value": 3.03878, "internal_count": 40, "left_child": {"leaf_index": 17, "leaf_value": 0.3556708655686705, "leaf_count": 20}, "right_child": {"leaf_index": 29, "leaf_value": 0.21342396997289967, "leaf_count": 20}}, "right_child": {"split_index": 18, "split_feature": 180, "split_gain": 7.113830089569092, "threshold": 132.58333333333334, "decision_type": "<=", "default_left": true, "missing_type": "NaN", "internal_value": 1.73395, "internal_count": 165, "left_child": {"split_index": 26, "split_feature": 15, "split_gain": 2.5610499382019043, "threshold": 130.00000000000003, "decision_type": "<=", "default_left": true, "missing_type": "NaN", "internal_value": 2.1306, "internal_count": 82, "left_child": {"split_index": 27, "split_feature": 76, "split_gain": 1.9244099855422974, "threshold": 200.4166666666667, "decision_type": "<=", "default_left": true, "missing_type": "NaN", "internal_value": 2.34614, "internal_count": 62, "left_child": {"leaf_index": 18, "leaf_value": 0.1376801256589359, "leaf_count": 32}, "right_child": {"leaf_index": 28, "leaf_value": 0.26962069424712004, "leaf_count": 30}}, "right_child": {"leaf_index": 27, "leaf_value": 0.02509416211789757, "leaf_count": 20}}, "right_child": {"leaf_index": 19, "leaf_value": -0.070655962978026, "leaf_count": 83}}}}}}}}}, "right_child": {"split_index": 2, "split_feature": 38, "split_gain": 16.408700942993164, "threshold": 124.16666666666667, "decision_type": "<=", "default_left": true, "missing_type": "NaN", "internal_value": -0.380759, "internal_count": 3904, "left_child": {"split_index": 3, "split_feature": 80, "split_gain": 15.690600395202637, "threshold": 129.83333333333334, "decision_type": "<=", "default_left": false, "missing_type": "NaN", "internal_value": 0.175743, "internal_count": 1594, "left_child": {"split_index": 9, "split_feature": 47, "split_gain": 7.732210159301758, "threshold": 173.1666666666667, "decision_type": "<=", "default_left": false, "missing_type": "NaN", "internal_value": 1.5513, "internal_count": 164, "left_child": {"leaf_index": 2, "leaf_value": -0.10729299342864201, "leaf_count": 61}, "right_child": {"split_index": 10, "split_feature": 151, "split_gain": 6.691259860992432, "threshold": 477.1666666666667, "decision_type": "<=", "default_left": false, "missing_type": "NaN", "internal_value": 2.02229, "internal_count": 103, "left_child": {"leaf_index": 10, "leaf_value": 0.4250571099747542, "leaf_count": 25}, "right_child": {"split_index": 19, "split_feature": 122, "split_gain": 3.796489953994751, "threshold": 203.25000000000003, "decision_type": "<=", "default_left": false, "missing_type": "NaN", "internal_value": 1.45613, "internal_count": 78, "left_child": {"leaf_index": 11, "leaf_value": -0.10599698641340571, "leaf_count": 36}, "right_child": {"leaf_index": 20, "leaf_value": 0.18128962663909243, "leaf_count": 42}}}}, "right_child": {"split_index": 8, "split_feature": 124, "split_gain": 8.037099838256836, "threshold": 202.25000000000003, "decision_type": "<=", "default_left": false, "missing_type": "NaN", "internal_value": -0.272074, "internal_count": 1430, "left_child": {"split_index": 11, "split_feature": 103, "split_gain": 6.253270149230957, "threshold": 124.87500000000001, "decision_type": "<=", "default_left": true, "missing_type": "NaN", "internal_value": 0.802856, "internal_count": 236, "left_child": {"split_index": 21, "split_feature": 157, "split_gain": 3.334589958190918, "threshold": 194.75000000000003, "decision_type": "<=", "default_left": false, "missing_type": "NaN", "internal_value": -0.334323, "internal_count": 172, "left_child": {"leaf_index": 4, "leaf_value": 0.1565468974405818, "leaf_count": 24}, "right_child": {"leaf_index": 22, "leaf_value": -0.1040995139337424, "leaf_count": 148}}, "right_child": {"split_index": 22, "split_feature": 47, "split_gain": 3.0980899333953857, "threshold": 203.12500000000003, "decision_type": "<=", "default_left": false, "missing_type": "NaN", "internal_value": 1.8795899999999999, "internal_count": 64, "left_child": {"leaf_index": 12, "leaf_value": -0.10186989816416868, "leaf_count": 28}, "right_child": {"leaf_index": 23, "leaf_value": 0.22870754645776664, "leaf_count": 36}}}, "right_child": {"split_index": 13, "split_feature": 122, "split_gain": 5.647130012512207, "threshold": 281.50000000000006, "decision_type": "<=", "default_left": true, "missing_type": "NaN", "internal_value": -0.661171, "internal_count": 1194, "left_child": {"split_index": 14, "split_feature": 105, "split_gain": 4.776350021362305, "threshold": 124.25000000000001, "decision_type": "<=", "default_left": false, "missing_type": "NaN", "internal_value": -0.853052, "internal_count": 1144, "left_child": {"split_index": 15, "split_feature": 158, "split_gain": 4.83144998550415, "threshold": 298.00000000000006, "decision_type": "<=", "default_left": true, "missing_type": "NaN", "internal_value": 0.602537, "internal_count": 99, "left_child": {"leaf_index": 9, "leaf_value": -0.1029780348077055, "leaf_count": 79}, "right_child": {"leaf_index": 16, "leaf_value": 0.2144590312866801, "leaf_count": 20}}, "right_child": {"split_index": 29, "split_feature": 120, "split_gain": 1.4355800151824951, "threshold": 109.12500000000001, "decision_type": "<=", "default_left": false, "missing_type": "NaN", "internal_value": -1.10702, "internal_count": 1045, "left_child": {"leaf_index": 15, "leaf_value": -0.2144965683214579, "leaf_count": 59}, "right_child": {"leaf_index": 30, "leaf_value": -0.09812962700876834, "leaf_count": 986}}}, "right_child": {"split_index": 23, "split_feature": 12, "split_gain": 2.8628900051116943, "threshold": 124.87500000000001, "decision_type": "<=", "default_left": true, "missing_type": "NaN", "internal_value": 1.42477, "internal_count": 50, "left_child": {"leaf_index": 14, "leaf_value": -0.10391827022295722, "leaf_count": 29}, "right_child": {"leaf_index": 24, "leaf_value": 0.24023781352200177, "leaf_count": 21}}}}}, "right_child": {"split_index": 20, "split_feature": 117, "split_gain": 3.7299699783325195, "threshold": 475.50000000000006, "decision_type": "<=", "default_left": true, "missing_type": "NaN", "internal_value": -0.981829, "internal_count": 2310, "left_child": {"split_index": 24, "split_feature": 157, "split_gain": 2.7086799144744873, "threshold": 1201.2500000000002, "decision_type": "<=", "default_left": true, "missing_type": "NaN", "internal_value": -1.02402, "internal_count": 2289, "left_child": {"leaf_index": 3, "leaf_value": -0.11170108218865267, "leaf_count": 2188}, "right_child": {"split_index": 25, "split_feature": 96, "split_gain": 3.205319881439209, "threshold": 203.25000000000003, "decision_type": "<=", "default_left": false, "missing_type": "NaN", "internal_value": 0.225042, "internal_count": 101, "left_child": {"leaf_index": 25, "leaf_value": 0.17969216892473844, "leaf_count": 20}, "right_child": {"leaf_index": 26, "leaf_value": -0.10369279076897764, "leaf_count": 81}}}, "right_child": {"leaf_index": 21, "leaf_value": 0.27667575977127035, "leaf_count": 21}}}}}}, {"tree_index": 6, "num_leaves": 31, "num_cat": 0, "shrinkage": 0.1, "tree_structure": {"split_index": 0, "split_feature": 76, "split_gain": 19.08799934387207, "threshold": 185.00000000000003, "decision_type": "<=", "default_left": false, "missing_type": "NaN", "internal_value": 0, "internal_count": 8066, "left_child": {"leaf_index": 0, "leaf_value": -0.104052341763693, "leaf_count": 3392}, "right_child": {"split_index": 1, "split_feature": 124, "split_gain": 18.858600616455078, "threshold": 202.25000000000003, "decision_type": "<=", "default_left": false, "missing_type": "NaN", "internal_value": -0.032954, "internal_count": 4674, "left_child": {"split_index": 2, "split_feature": 122, "split_gain": 17.011999130249023, "threshold": 196.4166666666667, "decision_type": "<=", "default_left": false, "missing_type": "NaN", "internal_value": 0.839636, "internal_count": 819, "left_child": {"leaf_index": 1, "leaf_value": -0.13011308264915733, "leaf_count": 282}, "right_child": {"split_index": 4, "split_feature": 47, "split_gain": 10.094499588012695, "threshold": 175.12500000000003, "decision_type": "<=", "default_left": false, "missing_type": "NaN", "internal_value": 1.28224, "internal_count": 537, "left_child": {"split_index": 28, "split_feature": 196, "split_gain": 1.3136299848556519, "threshold": 222.75000000000003, "decision_type": "<=", "default_left": false, "missing_type": "NaN", "internal_value": -0.684064, "internal_count": 186, "left_child": {"leaf_index": 3, "leaf_value": 0.09856498323714112, "leaf_count": 20}, "right_child": {"leaf_index": 29, "leaf_value": -0.10382760033238919, "leaf_count": 166}}, "right_child": {"split_index": 7, "split_feature": 198, "split_gain": 6.102709770202637, "threshold": 158.12500000000003, "decision_type": "<=", "default_left": true, "missing_type": "NaN", "internal_value": 1.6272799999999998, "internal_count": 351, "left_child": {"split_index": 9, "split_feature": 115, "split_gain": 5.579070091247559, "threshold": 180.83333333333334, "decision_type": "<=", "default_left": false, "missing_type": "NaN", "internal_value": 1.8619599999999998, "internal_count": 244, "left_child": {"leaf_index": 5, "leaf_value": -0.1028607681115392, "leaf_count": 50}, "right_child": {"split_index": 12, "split_feature": 150, "split_gain": 4.22599983215332, "threshold": 858.1666666666669, "decision_type": "<=", "default_left": false, "missing_type": "NaN", "internal_value": 2.03187, "internal_count": 194, "left_child": {"leaf_index": 10, "leaf_value": 0.024572519025042074, "leaf_count": 52}, "right_child": {"split_index": 17, "split_feature": 89, "split_gain": 3.635509967803955, "threshold": 154.50000000000003, "decision_type": "<=", "default_left": false, "missing_type": "NaN", "internal_value": 2.25239, "internal_count": 142, "left_child": {"split_index": 20, "split_feature": 64, "split_gain": 2.3055899143218994, "threshold": 116.62500000000001, "decision_type": "<=", "default_left": true, "missing_type": "NaN", "internal_value": 3.11752, "internal_count": 40, "left_child": {"leaf_index": 13, "leaf_value": 0.22259108945046413, "leaf_count": 20}, "right_child": {"leaf_index": 21, "leaf_value": 0.39206587732202014, "leaf_count": 20}}, "right_child": {"split_index": 18, "split_feature": 83, "split_gain": 3.0834100246429443, "threshold": 77.75000000000001, "decision_type": "<=", "default_left": true, "missing_type": "NaN", "internal_value": 1.81236, "internal_count": 102, "left_child": {"split_index": 19, "split_feature": 80, "split_gain": 2.467639923095703, "threshold": 135.50000000000003, "decision_type": "<=", "default_left": true, "missing_type": "NaN", "internal_value": 1.48556, "internal_count": 82, "left_child": {"leaf_index": 18, "leaf_value": 0.1674970645870324, "leaf_count": 51}, "right_child": {"leaf_index": 20, "leaf_value": -0.10237269207830689, "leaf_count": 31}}, "right_child": {"leaf_index": 19, "leaf_value": 0.3302820176772789, "leaf_count": 20}}}}}, "right_child": {"leaf_index": 8, "leaf_value": -0.04272350220947292, "leaf_count": 107}}}}, "right_child": {"split_index": 3, "split_feature": 125, "split_gain": 13.223199844360352, "threshold": 186.50000000000003, "decision_type": "<=", "default_left": false, "missing_type": "NaN", "internal_value": -0.364087, "internal_count": 3855, "left_child": {"split_index": 8, "split_feature": 105, "split_gain": 5.789120197296143, "threshold": 108.75000000000001, "decision_type": "<=", "default_left": true, "missing_type": "NaN", "internal_value": 0.519618, "internal_count": 564, "left_child": {"split_index": 10, "split_feature": 122, "split_gain": 5.1113200187683105, "threshold": 202.83333333333334, "decision_type": "<=", "default_left": true, "missing_type": "NaN", "internal_value": -0.0450895, "internal_count": 406, "left_child": {"leaf_index": 2, "leaf_value": -0.08737803785690747, "leaf_count": 308}, "right_child": {"split_index": 11, "split_feature": 70, "split_gain": 4.235750198364258, "threshold": 66.75000000000001, "decision_type": "<=", "default_left": true, "missing_type": "NaN", "internal_value": 0.789304, "internal_count": 98, "left_child": {"split_index": 13, "split_feature": 80, "split_gain": 4.068940162658691, "threshold": 121.83333333333336, "decision_type": "<=", "default_left": true, "missing_type": "NaN", "internal_value": 1.22054, "internal_count": 77, "left_child": {"leaf_index": 11, "leaf_value": 0.17824309483477085, "leaf_count": 38}, "right_child": {"leaf_index": 14, "leaf_value": -0.10633994118009159, "leaf_count": 39}}, "right_child": {"leaf_index": 12, "leaf_value": -0.18773274896228254, "leaf_count": 21}}}, "right_child": {"split_index": 16, "split_feature": 180, "split_gain": 3.9060299396514893, "threshold": 125.10000000000001, "decision_type": "<=", "default_left": true, "missing_type": "NaN", "internal_value": 1.34173, "internal_count": 158, "left_child": {"split_index": 25, "split_feature": 109, "split_gain": 1.8625600337982178, "threshold": 130.1666666666667, "decision_type": "<=", "default_left": true, "missing_type": "NaN", "internal_value": 1.82017, "internal_count": 67, "left_child": {"leaf_index": 9, "leaf_value": 0.20522298677230644, "leaf_count": 47}, "right_child": {"leaf_index": 26, "leaf_value": -0.02308988889889331, "leaf_count": 20}}, "right_child": {"split_index": 27, "split_feature": 180, "split_gain": 1.4393600225448608, "threshold": 265.12500000000006, "decision_type": "<=", "default_left": true, "missing_type": "NaN", "internal_value": -0.266113, "internal_count": 91, "left_child": {"leaf_index": 17, "leaf_value": -0.10356380849829659, "leaf_count": 71}, "right_child": {"leaf_index": 28, "leaf_value": 0.13401919525401482, "leaf_count": 20}}}}, "right_child": {"split_index": 5, "split_feature": 49, "split_gain": 7.697329998016357, "threshold": 97.62500000000001, "decision_type": "<=", "default_left": false, "missing_type": "NaN", "internal_value": -0.68035, "internal_count": 3291, "left_child": {"split_index": 6, "split_feature": 112, "split_gain": 9.578619956970215, "threshold": 155.75000000000003, "decision_type": "<=", "default_left": true, "missing_type": "NaN", "internal_value": 0.477186, "internal_count": 218, "left_child": {"leaf_index": 4, "leaf_value": -0.08958712606842482, "leaf_count": 184}, "right_child": {"leaf_index": 7, "leaf_value": 0.18917475397821518, "leaf_count": 34}}, "right_child": {"split_index": 14, "split_feature": 98, "split_gain": 4.046860218048096, "threshold": 218.58333333333334, "decision_type": "<=", "default_left": true, "missing_type": "NaN", "internal_value": -0.871198, "internal_count": 3073, "left_child": {"split_index": 21, "split_feature": 158, "split_gain": 2.246769905090332, "threshold": 252.33333333333334, "decision_type": "<=", "default_left": true, "missing_type": "NaN", "internal_value": -0.969614, "internal_count": 2890, "left_child": {"split_index": 24, "split_feature": 120, "split_gain": 2.2086501121520996, "threshold": 117.25000000000001, "decision_type": "<=", "default_left": false, "missing_type": "NaN", "internal_value": -1.15105, "internal_count": 2176, "left_child": {"split_index": 29, "split_feature": 176, "split_gain": 1.2286900281906128, "threshold": 171.1666666666667, "decision_type": "<=", "default_left": false, "missing_type": "NaN", "internal_value": -2.00018, "internal_count": 136, "left_child": {"leaf_index": 6, "leaf_value": -0.10228759301267441, "leaf_count": 95}, "right_child": {"leaf_index": 30, "leaf_value": -0.24740584600517665, "leaf_count": 41}}, "right_child": {"leaf_index": 25, "leaf_value": -0.10197575604883938, "leaf_count": 2040}}, "right_child": {"split_index": 22, "split_feature": 146, "split_gain": 3.259929895401001, "threshold": 93.12500000000001, "decision_type": "<=", "default_left": false, "missing_type": "NaN", "internal_value": -0.525989, "internal_count": 714, "left_child": {"leaf_index": 22, "leaf_value": 0.15341313449769448, "leaf_count": 20}, "right_child": {"split_index": 23, "split_feature": 93, "split_gain": 2.453819990158081, "threshold": 174.00000000000003, "decision_type": "<=", "default_left": false, "missing_type": "NaN", "internal_value": -0.721287, "internal_count": 694, "left_child": {"split_index": 26, "split_feature": 92, "split_gain": 1.7181199789047241, "threshold": 203.75000000000003, "decision_type": "<=", "default_left": false, "missing_type": "NaN", "internal_value": 0.382767, "internal_count": 75, "left_child": {"leaf_index": 23, "leaf_value": 0.11423739518044446, "leaf_count": 27}, "right_child": {"leaf_index": 27, "leaf_value": -0.10464263937388024, "leaf_count": 48}}, "right_child": {"leaf_index": 24, "leaf_value": -0.10215969263807385, "leaf_count": 619}}}}, "right_child": {"split_index": 15, "split_feature": 141, "split_gain": 7.305880069732666, "threshold": 210.75000000000003, "decision_type": "<=", "default_left": true, "missing_type": "NaN", "internal_value": 0.503504, "internal_count": 183, "left_child": {"leaf_index": 15, "leaf_value": -0.08323512408869133, "leaf_count": 158}, "right_child": {"leaf_index": 16, "leaf_value": 0.3240296461021851, "leaf_count": 25}}}}}}}}, {"tree_index": 7, "num_leaves": 31, "num_cat": 0, "shrinkage": 0.1, "tree_structure": {"split_index": 0, "split_feature": 76, "split_gain": 17.437700271606445, "threshold": 185.00000000000003, "decision_type": "<=", "default_left": false, "missing_type": "NaN", "internal_value": 0, "internal_count": 8066, "left_child": {"leaf_index": 0, "leaf_value": -0.10396349639075293, "leaf_count": 3392}, "right_child": {"split_index": 1, "split_feature": 80, "split_gain": 16.329700469970703, "threshold": 134.00000000000003, "decision_type": "<=", "default_left": true, "missing_type": "NaN", "internal_value": -0.0360614, "internal_count": 4674, "left_child": {"split_index": 2, "split_feature": 47, "split_gain": 18.145599365234375, "threshold": 173.1666666666667, "decision_type": "<=", "default_left": false, "missing_type": "NaN", "internal_value": 0.265892, "internal_count": 2804, "left_child": {"split_index": 12, "split_feature": 84, "split_gain": 3.379650115966797, "threshold": 154.00000000000003, "decision_type": "<=", "default_left": false, "missing_type": "NaN", "internal_value": -0.951008, "internal_count": 970, "left_child": {"leaf_index": 1, "leaf_value": 0.12156566572403993, "leaf_count": 26}, "right_child": {"leaf_index": 13, "leaf_value": -0.11118881004010826, "leaf_count": 944}}, "right_child": {"split_index": 3, "split_feature": 49, "split_gain": 16.010900497436523, "threshold": 135.08333333333334, "decision_type": "<=", "default_left": true, "missing_type": "NaN", "internal_value": 0.586923, "internal_count": 1834, "left_child": {"split_index": 5, "split_feature": 133, "split_gain": 11.01159954071045, "threshold": 140.58333333333334, "decision_type": "<=", "default_left": false, "missing_type": "NaN", "internal_value": 1.07284, "internal_count": 745, "left_child": {"leaf_index": 3, "leaf_value": -0.1217101108811445, "leaf_count": 157}, "right_child": {"split_index": 6, "split_feature": 92, "split_gain": 7.869639873504639, "threshold": 162.50000000000003, "decision_type": "<=", "default_left": false, "missing_type": "NaN", "internal_value": 1.2746, "internal_count": 588, "left_child": {"leaf_index": 6, "leaf_value": -0.192608614625794, "leaf_count": 33}, "right_child": {"split_index": 8, "split_feature": 176, "split_gain": 5.171189785003662, "threshold": 101.25000000000001, "decision_type": "<=", "default_left": false, "missing_type": "NaN", "internal_value": 1.38685, "internal_count": 555, "left_child": {"leaf_index": 7, "leaf_value": -0.10501037221997245, "leaf_count": 65}, "right_child": {"split_index": 9, "split_feature": 163, "split_gain": 4.86053991317749, "threshold": 288.75000000000006, "decision_type": "<=", "default_left": false, "missing_type": "NaN", "internal_value": 1.48712, "internal_count": 490, "left_child": {"leaf_index": 9, "leaf_value": -0.10446280438930414, "leaf_count": 50}, "right_child": {"split_index": 11, "split_feature": 141, "split_gain": 3.6757400035858154, "threshold": 190.00000000000003, "decision_type": "<=", "default_left": false, "missing_type": "NaN", "internal_value": 1.5815700000000001, "internal_count": 440, "left_child": {"leaf_index": 10, "leaf_value": -0.10240138121740655, "leaf_count": 45}, "right_child": {"split_index": 13, "split_feature": 137, "split_gain": 3.3731000423431396, "threshold": 157.50000000000003, "decision_type": "<=", "default_left": true, "missing_type": "NaN", "internal_value": 1.65357, "internal_count": 395, "left_child": {"split_index": 14, "split_feature": 198, "split_gain": 3.031719923019409, "threshold": 376.50000000000006, "decision_type": "<=", "default_left": true, "missing_type": "NaN", "internal_value": 1.76833, "internal_count": 338, "left_child": {"split_index": 16, "split_feature": 122, "split_gain": 2.784209966659546, "threshold": 171.58333333333334, "decision_type": "<=", "default_left": false, "missing_type": "NaN", "internal_value": 1.8281399999999999, "internal_count": 310, "left_child": {"leaf_index": 12, "leaf_value": -0.10118124277577029, "leaf_count": 41}, "right_child": {"split_index": 17, "split_feature": 166, "split_gain": 2.661900043487549, "threshold": 173.75000000000003, "decision_type": "<=", "default_left": false, "missing_type": "NaN", "internal_value": 1.8845399999999999, "internal_count": 269, "left_child": {"leaf_index": 17, "leaf_value": -0.10254262575055383, "leaf_count": 28}, "right_child": {"split_index": 18, "split_feature": 52, "split_gain": 2.177989959716797, "threshold": 141.50000000000003, "decision_type": "<=", "default_left": false, "missing_type": "NaN", "internal_value": 1.93821, "internal_count": 241, "left_child": {"leaf_index": 18, "leaf_value": 0.3191570884148116, "leaf_count": 20}, "right_child": {"split_index": 21, "split_feature": 114, "split_gain": 2.0349199771881104, "threshold": 187.1666666666667, "decision_type": "<=", "default_left": false, "missing_type": "NaN", "internal_value": 1.83438, "internal_count": 221, "left_child": {"leaf_index": 19, "leaf_value": -0.06978492718054258, "leaf_count": 27}, "right_child": {"split_index": 22, "split_feature": 89, "split_gain": 1.9695099592208862, "threshold": 130.1666666666667, "decision_type": "<=", "default_left": false, "missing_type": "NaN", "internal_value": 1.8863699999999999, "internal_count": 194, "left_child": {"split_index": 28, "split_feature": 159, "split_gain": 1.142930030822754, "threshold": 170.00000000000003, "decision_type": "<=", "default_left": true, "missing_type": "NaN", "internal_value": 2.50942, "internal_count": 40, "left_child": {"leaf_index": 22, "leaf_value": 0.1431269712543589, "leaf_count": 20}, "right_child": {"leaf_index": 29, "leaf_value": 0.27883580737280694, "leaf_count": 20}}, "right_child": {"split_index": 24, "split_feature": 120, "split_gain": 1.297569990158081, "threshold": 210.62500000000003, "decision_type": "<=", "default_left": true, "missing_type": "NaN", "internal_value": 1.67764, "internal_count": 154, "left_child": {"split_index": 26, "split_feature": 64, "split_gain": 1.188920021057129, "threshold": 114.16666666666667, "decision_type": "<=", "default_left": true, "missing_type": "NaN", "internal_value": 1.7201499999999998, "internal_count": 132, "left_child": {"split_index": 27, "split_feature": 76, "split_gain": 1.3718199729919434, "threshold": 232.25000000000003, "decision_type": "<=", "default_left": false, "missing_type": "NaN", "internal_value": 1.2727, "internal_count": 67, "left_child": {"leaf_index": 23, "leaf_value": 0.15983631842147733, "leaf_count": 24}, "right_child": {"leaf_index": 28, "leaf_value": 0.018614498432475483, "leaf_count": 43}}, "right_child": {"leaf_index": 27, "leaf_value": 0.19580829446075992, "leaf_count": 65}}, "right_child": {"leaf_index": 25, "leaf_value": -0.10131694701097689, "leaf_count": 22}}}}}}}, "right_child": {"leaf_index": 15, "leaf_value": -0.1087871938386834, "leaf_count": 28}}, "right_child": {"split_index": 25, "split_feature": 125, "split_gain": 1.2244999408721924, "threshold": 213.1666666666667, "decision_type": "<=", "default_left": false, "missing_type": "NaN", "internal_value": 0.112096, "internal_count": 57, "left_child": {"leaf_index": 14, "leaf_value": 0.09110817936694507, "leaf_count": 21}, "right_child": {"leaf_index": 26, "leaf_value": -0.1047878718013277, "leaf_count": 36}}}}}}}}, "right_child": {"split_index": 4, "split_feature": 11, "split_gain": 11.016799926757812, "threshold": 132.75000000000003, "decision_type": "<=", "default_left": false, "missing_type": "NaN", "internal_value": -0.309607, "internal_count": 1089, "left_child": {"split_index": 10, "split_feature": 113, "split_gain": 4.549739837646484, "threshold": 327.75000000000006, "decision_type": "<=", "default_left": false, "missing_type": "NaN", "internal_value": 1.162, "internal_count": 123, "left_child": {"leaf_index": 4, "leaf_value": 0.22573660868316733, "leaf_count": 26}, "right_child": {"split_index": 23, "split_feature": 78, "split_gain": 1.6328799724578857, "threshold": 347.25000000000006, "decision_type": "<=", "default_left": false, "missing_type": "NaN", "internal_value": 0.0239693, "internal_count": 97, "left_child": {"leaf_index": 11, "leaf_value": 0.11116492336143227, "leaf_count": 20}, "right_child": {"leaf_index": 24, "leaf_value": -0.08146918877149421, "leaf_count": 77}}}, "right_child": {"split_index": 7, "split_feature": 22, "split_gain": 6.449029922485352, "threshold": 464.25000000000006, "decision_type": "<=", "default_left": true, "missing_type": "NaN", "internal_value": -0.889122, "internal_count": 966, "left_child": {"leaf_index": 5, "leaf_value": -0.11973889459222985, "leaf_count": 918}, "right_child": {"split_index": 15, "split_feature": 147, "split_gain": 2.8508400917053223, "threshold": 39.00000000000001, "decision_type": "<=", "default_left": true, "missing_type": "NaN", "internal_value": 1.36806, "internal_count": 48, "left_child": {"leaf_index": 8, "leaf_value": -0.1056223577191186, "leaf_count": 28}, "right_child": {"leaf_index": 16, "leaf_value": 0.24239643972397965, "leaf_count": 20}}}}}}, "right_child": {"split_index": 19, "split_feature": 65, "split_gain": 2.123189926147461, "threshold": 230.25000000000003, "decision_type": "<=", "default_left": true, "missing_type": "NaN", "internal_value": -0.898427, "internal_count": 1870, "left_child": {"split_index": 29, "split_feature": 29, "split_gain": 1.1327500343322754, "threshold": 327.8333333333334, "decision_type": "<=", "default_left": true, "missing_type": "NaN", "internal_value": -1.00076, "internal_count": 1779, "left_child": {"leaf_index": 2, "leaf_value": -0.10444774483178731, "leaf_count": 1759}, "right_child": {"leaf_index": 30, "leaf_value": 0.07201456247542508, "leaf_count": 20}}, "right_child": {"split_index": 20, "split_feature": 194, "split_gain": 2.3473401069641113, "threshold": 296.50000000000006, "decision_type": "<=", "default_left": false, "missing_type": "NaN", "internal_value": 0.377318, "internal_count": 91, "left_child": {"leaf_index": 20, "leaf_value": 0.17674534039084333, "leaf_count": 20}, "right_child": {"leaf_index": 21, "leaf_value": -0.10208765401194256, "leaf_count": 71}}}}}}, {"tree_index": 8, "num_leaves": 31, "num_cat": 0, "shrinkage": 0.1, "tree_structure": {"split_index": 0, "split_feature": 76, "split_gain": 15.866700172424316, "threshold": 185.00000000000003, "decision_type": "<=", "default_left": false, "missing_type": "NaN", "internal_value": 0, "internal_count": 8066, "left_child": {"leaf_index": 0, "leaf_value": -0.10387142453203313, "leaf_count": 3392}, "right_child": {"split_index": 1, "split_feature": 133, "split_gain": 14.403300285339355, "threshold": 140.70833333333334, "decision_type": "<=", "default_left": false, "missing_type": "NaN", "internal_value": -0.0387786, "internal_count": 4674, "left_child": {"split_index": 21, "split_feature": 38, "split_gain": 1.4273699522018433, "threshold": 70.25000000000001, "decision_type": "<=", "default_left": false, "missing_type": "NaN", "internal_value": -1.07385, "internal_count": 1295, "left_child": {"leaf_index": 1, "leaf_value": 0.08490839760404495, "leaf_count": 20}, "right_child": {"split_index": 25, "split_feature": 174, "split_gain": 0.795930027961731, "threshold": 249.55000000000004, "decision_type": "<=", "default_left": true, "missing_type": "NaN", "internal_value": -1.14157, "internal_count": 1275, "left_child": {"leaf_index": 22, "leaf_value": -0.105250202011957, "leaf_count": 1234}, "right_child": {"leaf_index": 26, "leaf_value": -0.19855234749013734, "leaf_count": 41}}}, "right_child": {"split_index": 2, "split_feature": 180, "split_gain": 17.081499099731445, "threshold": 136.62500000000003, "decision_type": "<=", "default_left": true, "missing_type": "NaN", "internal_value": 0.19565, "internal_count": 3379, "left_child": {"split_index": 3, "split_feature": 188, "split_gain": 10.207900047302246, "threshold": 132.25000000000003, "decision_type": "<=", "default_left": true, "missing_type": "NaN", "internal_value": 0.626968, "internal_count": 1336, "left_child": {"split_index": 4, "split_feature": 107, "split_gain": 8.689249992370605, "threshold": 206.50000000000003, "decision_type": "<=", "default_left": false, "missing_type": "NaN", "internal_value": 0.859917, "internal_count": 1035, "left_child": {"leaf_index": 2, "leaf_value": -0.14405181145773543, "leaf_count": 99}, "right_child": {"split_index": 5, "split_feature": 120, "split_gain": 7.5425801277160645, "threshold": 129.6666666666667, "decision_type": "<=", "default_left": true, "missing_type": "NaN", "internal_value": 0.999181, "internal_count": 936, "left_child": {"split_index": 7, "split_feature": 122, "split_gain": 5.444960117340088, "threshold": 171.58333333333334, "decision_type": "<=", "default_left": false, "missing_type": "NaN", "internal_value": 1.21209, "internal_count": 646, "left_child": {"leaf_index": 5, "leaf_value": -0.1012730485308996, "leaf_count": 135}, "right_child": {"split_index": 10, "split_feature": 137, "split_gain": 4.638199806213379, "threshold": 201.50000000000003, "decision_type": "<=", "default_left": true, "missing_type": "NaN", "internal_value": 1.3225, "internal_count": 511, "left_child": {"split_index": 11, "split_feature": 65, "split_gain": 4.390999794006348, "threshold": 173.50000000000003, "decision_type": "<=", "default_left": false, "missing_type": "NaN", "internal_value": 1.4257, "internal_count": 450, "left_child": {"leaf_index": 8, "leaf_value": -0.10495334561963612, "leaf_count": 55}, "right_child": {"split_index": 13, "split_feature": 77, "split_gain": 3.4974400997161865, "threshold": 154.13333333333335, "decision_type": "<=", "default_left": false, "missing_type": "NaN", "internal_value": 1.51377, "internal_count": 395, "left_child": {"split_index": 23, "split_feature": 133, "split_gain": 1.2447400093078613, "threshold": 220.50000000000003, "decision_type": "<=", "default_left": false, "missing_type": "NaN", "internal_value": -0.123263, "internal_count": 64, "left_child": {"leaf_index": 12, "leaf_value": 0.09760892087356193, "leaf_count": 20}, "right_child": {"leaf_index": 24, "leaf_value": -0.10490474459513649, "leaf_count": 44}}, "right_child": {"split_index": 14, "split_feature": 198, "split_gain": 3.0866100788116455, "threshold": 409.50000000000006, "decision_type": "<=", "default_left": true, "missing_type": "NaN", "internal_value": 1.62361, "internal_count": 331, "left_child": {"split_index": 15, "split_feature": 80, "split_gain": 2.2677700519561768, "threshold": 177.1666666666667, "decision_type": "<=", "default_left": true, "missing_type": "NaN", "internal_value": 1.68611, "internal_count": 308, "left_child": {"split_index": 16, "split_feature": 110, "split_gain": 1.9674700498580933, "threshold": 171.1666666666667, "decision_type": "<=", "default_left": false, "missing_type": "NaN", "internal_value": 1.73323, "internal_count": 269, "left_child": {"leaf_index": 14, "leaf_value": 0.025038149872277222, "leaf_count": 29}, "right_child": {"split_index": 18, "split_feature": 3, "split_gain": 1.5967199802398682, "threshold": 202.83333333333334, "decision_type": "<=", "default_left": true, "missing_type": "NaN", "internal_value": 1.80901, "internal_count": 240, "left_child": {"split_index": 19, "split_feature": 113, "split_gain": 2.297060012817383, "threshold": 209.00000000000003, "decision_type": "<=", "default_left": true, "missing_type": "NaN", "internal_value": 1.639, "internal_count": 208, "left_child": {"split_index": 20, "split_feature": 40, "split_gain": 1.4488099813461304, "threshold": 659.5000000000001, "decision_type": "<=", "default_left": false, "missing_type": "NaN", "internal_value": 1.70624, "internal_count": 176, "left_child": {"leaf_index": 17, "leaf_value": -0.046928442478875836, "leaf_count": 20}, "right_child": {"split_index": 22, "split_feature": 109, "split_gain": 1.3102099895477295, "threshold": 161.1666666666667, "decision_type": "<=", "default_left": true, "missing_type": "NaN", "internal_value": 1.7595800000000001, "internal_count": 156, "left_child": {"split_index": 26, "split_feature": 49, "split_gain": 0.7464100122451782, "threshold": 442.7666666666667, "decision_type": "<=", "default_left": false, "missing_type": "NaN", "internal_value": 1.83131, "internal_count": 121, "left_child": {"split_index": 28, "split_feature": 162, "split_gain": 0.5916810035705566, "threshold": 218.1666666666667, "decision_type": "<=", "default_left": true, "missing_type": "NaN", "internal_value": 1.7186, "internal_count": 100, "left_child": {"split_index": 29, "split_feature": 49, "split_gain": 0.560571014881134, "threshold": 129.83333333333334, "decision_type": "<=", "default_left": true, "missing_type": "NaN", "internal_value": 1.39621, "internal_count": 59, "left_child": {"leaf_index": 21, "leaf_value": 0.15469352267492686, "leaf_count": 29}, "right_child": {"leaf_index": 30, "leaf_value": 0.03598115776788212, "leaf_count": 30}}, "right_child": {"leaf_index": 29, "leaf_value": 0.19076499022421345, "leaf_count": 41}}, "right_child": {"leaf_index": 27, "leaf_value": 0.2400707911771076, "leaf_count": 21}}, "right_child": {"leaf_index": 23, "leaf_value": 0.02608653748803288, "leaf_count": 35}}}, "right_child": {"leaf_index": 20, "leaf_value": -0.1029985819541604, "leaf_count": 32}}, "right_child": {"leaf_index": 19, "leaf_value": 0.23727642581096925, "leaf_count": 32}}}, "right_child": {"leaf_index": 16, "leaf_value": -0.10151246335192876, "leaf_count": 39}}, "right_child": {"leaf_index": 15, "leaf_value": -0.10855717261416814, "leaf_count": 23}}}}, "right_child": {"leaf_index": 11, "leaf_value": -0.0805614184087624, "leaf_count": 61}}}, "right_child": {"split_index": 12, "split_feature": 109, "split_gain": 4.082540035247803, "threshold": 142.50000000000003, "decision_type": "<=", "default_left": false, "missing_type": "NaN", "internal_value": -0.386036, "internal_count": 290, "left_child": {"leaf_index": 6, "leaf_value": 0.14696040487608816, "leaf_count": 21}, "right_child": {"leaf_index": 13, "leaf_value": -0.10317582349179316, "leaf_count": 269}}}}, "right_child": {"split_index": 9, "split_feature": 143, "split_gain": 4.708789825439453, "threshold": 148.25000000000003, "decision_type": "<=", "default_left": false, "missing_type": "NaN", "internal_value": -0.755713, "internal_count": 301, "left_child": {"leaf_index": 4, "leaf_value": 0.13136415751256977, "leaf_count": 24}, "right_child": {"split_index": 27, "split_feature": 83, "split_gain": 0.6351460218429565, "threshold": 116.75000000000001, "decision_type": "<=", "default_left": true, "missing_type": "NaN", "internal_value": -1.2536800000000001, "internal_count": 277, "left_child": {"leaf_index": 10, "leaf_value": -0.10665166381643823, "leaf_count": 257}, "right_child": {"leaf_index": 28, "leaf_value": -0.21750229453070397, "leaf_count": 20}}}}, "right_child": {"split_index": 6, "split_feature": 80, "split_gain": 6.34542989730835, "threshold": 93.83333333333336, "decision_type": "<=", "default_left": false, "missing_type": "NaN", "internal_value": -0.622647, "internal_count": 2043, "left_child": {"leaf_index": 3, "leaf_value": 0.16671521633210928, "leaf_count": 36}, "right_child": {"split_index": 8, "split_feature": 67, "split_gain": 5.212250232696533, "threshold": 109.25000000000001, "decision_type": "<=", "default_left": false, "missing_type": "NaN", "internal_value": -0.788538, "internal_count": 2007, "left_child": {"leaf_index": 7, "leaf_value": 0.15764116502823644, "leaf_count": 23}, "right_child": {"split_index": 17, "split_feature": 160, "split_gain": 1.607450008392334, "threshold": 1903.5000000000002, "decision_type": "<=", "default_left": true, "missing_type": "NaN", "internal_value": -0.930033, "internal_count": 1984, "left_child": {"split_index": 24, "split_feature": 96, "split_gain": 0.8312600255012512, "threshold": 78.16666666666667, "decision_type": "<=", "default_left": false, "missing_type": "NaN", "internal_value": -0.985708, "internal_count": 1958, "left_child": {"leaf_index": 9, "leaf_value": 0.011181024342065159, "leaf_count": 46}, "right_child": {"leaf_index": 25, "leaf_value": -0.10387032607555163, "leaf_count": 1912}}, "right_child": {"leaf_index": 18, "leaf_value": 0.10344653463880493, "leaf_count": 26}}}}}}}}, {"tree_index": 9, "num_leaves": 31, "num_cat": 0, "shrinkage": 0.1, "tree_structure": {"split_index": 0, "split_feature": 76, "split_gain": 14.468199729919434, "threshold": 185.00000000000003, "decision_type": "<=", "default_left": false, "missing_type": "NaN", "internal_value": 0, "internal_count": 8066, "left_child": {"leaf_index": 0, "leaf_value": -0.10377478541001811, "leaf_count": 3392}, "right_child": {"split_index": 1, "split_feature": 133, "split_gain": 12.733200073242188, "threshold": 140.70833333333334, "decision_type": "<=", "default_left": false, "missing_type": "NaN", "internal_value": -0.0400683, "internal_count": 4674, "left_child": {"split_index": 20, "split_feature": 38, "split_gain": 1.2945200204849243, "threshold": 70.25000000000001, "decision_type": "<=", "default_left": false, "missing_type": "NaN", "internal_value": -1.06091, "internal_count": 1295, "left_child": {"leaf_index": 1, "leaf_value": 0.07468152236815669, "leaf_count": 20}, "right_child": {"split_index": 27, "split_feature": 174, "split_gain": 0.5646849870681763, "threshold": 249.55000000000004, "decision_type": "<=", "default_left": true, "missing_type": "NaN", "internal_value": -1.13228, "internal_count": 1275, "left_child": {"leaf_index": 21, "leaf_value": -0.10511421466071479, "leaf_count": 1234}, "right_child": {"leaf_index": 28, "leaf_value": -0.1853255521293056, "leaf_count": 41}}}, "right_child": {"split_index": 2, "split_feature": 180, "split_gain": 14.602999687194824, "threshold": 136.62500000000003, "decision_type": "<=", "default_left": true, "missing_type": "NaN", "internal_value": 0.182152, "internal_count": 3379, "left_child": {"split_index": 3, "split_feature": 188, "split_gain": 8.5693998336792, "threshold": 132.25000000000003, "decision_type": "<=", "default_left": true, "missing_type": "NaN", "internal_value": 0.582495, "internal_count": 1336, "left_child": {"split_index": 4, "split_feature": 107, "split_gain": 7.372429847717285, "threshold": 206.50000000000003, "decision_type": "<=", "default_left": false, "missing_type": "NaN", "internal_value": 0.796689, "internal_count": 1035, "left_child": {"leaf_index": 2, "leaf_value": -0.1417181304445011, "leaf_count": 99}, "right_child": {"split_index": 5, "split_feature": 120, "split_gain": 6.16910982131958, "threshold": 129.6666666666667, "decision_type": "<=", "default_left": true, "missing_type": "NaN", "internal_value": 0.923311, "internal_count": 936, "left_child": {"split_index": 7, "split_feature": 47, "split_gain": 4.486670017242432, "threshold": 182.7916666666667, "decision_type": "<=", "default_left": false, "missing_type": "NaN", "internal_value": 1.11424, "internal_count": 646, "left_child": {"split_index": 13, "split_feature": 50, "split_gain": 2.5584499835968018, "threshold": 196.4166666666667, "decision_type": "<=", "default_left": false, "missing_type": "NaN", "internal_value": -0.135559, "internal_count": 198, "left_child": {"leaf_index": 5, "leaf_value": 0.12786555106999395, "leaf_count": 20}, "right_child": {"leaf_index": 14, "leaf_value": -0.08487966167251554, "leaf_count": 178}}, "right_child": {"split_index": 10, "split_feature": 90, "split_gain": 3.5419399738311768, "threshold": 186.00000000000003, "decision_type": "<=", "default_left": false, "missing_type": "NaN", "internal_value": 1.27976, "internal_count": 448, "left_child": {"leaf_index": 8, "leaf_value": -0.10526585871474825, "leaf_count": 39}, "right_child": {"split_index": 12, "split_feature": 40, "split_gain": 2.8797900676727295, "threshold": 486.1666666666667, "decision_type": "<=", "default_left": false, "missing_type": "NaN", "internal_value": 1.3590499999999999, "internal_count": 409, "left_child": {"leaf_index": 11, "leaf_value": -0.10475817049040613, "leaf_count": 31}, "right_child": {"split_index": 14, "split_feature": 198, "split_gain": 2.4771299362182617, "threshold": 383.5833333333334, "decision_type": "<=", "default_left": true, "missing_type": "NaN", "internal_value": 1.42366, "internal_count": 378, "left_child": {"split_index": 15, "split_feature": 124, "split_gain": 2.4901299476623535, "threshold": 216.37500000000003, "decision_type": "<=", "default_left": true, "missing_type": "NaN", "internal_value": 1.47861, "internal_count": 354, "left_child": {"split_index": 17, "split_feature": 122, "split_gain": 1.8517500162124634, "threshold": 171.1666666666667, "decision_type": "<=", "default_left": false, "missing_type": "NaN", "internal_value": 1.6578, "internal_count": 236, "left_child": {"leaf_index": 13, "leaf_value": -0.10074315167940102, "leaf_count": 41}, "right_child": {"split_index": 21, "split_feature": 41, "split_gain": 1.2381999492645264, "threshold": 249.75000000000003, "decision_type": "<=", "default_left": true, "missing_type": "NaN", "internal_value": 1.7061199999999999, "internal_count": 195, "left_child": {"split_index": 22, "split_feature": 29, "split_gain": 0.9442269802093506, "threshold": 155.75000000000003, "decision_type": "<=", "default_left": true, "missing_type": "NaN", "internal_value": 1.75718, "internal_count": 173, "left_child": {"split_index": 23, "split_feature": 2, "split_gain": 0.9319139719009399, "threshold": 296.50000000000006, "decision_type": "<=", "default_left": true, "missing_type": "NaN", "internal_value": 1.6272, "internal_count": 147, "left_child": {"split_index": 25, "split_feature": 124, "split_gain": 0.7508400082588196, "threshold": 148.25000000000003, "decision_type": "<=", "default_left": true, "missing_type": "NaN", "internal_value": 1.65933, "internal_count": 126, "left_child": {"split_index": 26, "split_feature": 109, "split_gain": 1.373420000076294, "threshold": 156.1666666666667, "decision_type": "<=", "default_left": true, "missing_type": "NaN", "internal_value": 1.4073, "internal_count": 88, "left_child": {"split_index": 28, "split_feature": 146, "split_gain": 0.5487930178642273, "threshold": 312.1666666666667, "decision_type": "<=", "default_left": false, "missing_type": "NaN", "internal_value": 1.50712, "internal_count": 67, "left_child": {"leaf_index": 18, "leaf_value": 0.16375633720396499, "leaf_count": 36}, "right_child": {"leaf_index": 29, "leaf_value": 0.07339468789963369, "leaf_count": 31}}, "right_child": {"leaf_index": 27, "leaf_value": -0.10212973783776072, "leaf_count": 21}}, "right_child": {"leaf_index": 26, "leaf_value": 0.19331655296576566, "leaf_count": 38}}, "right_child": {"leaf_index": 24, "leaf_value": -0.10067233167674848, "leaf_count": 21}}, "right_child": {"leaf_index": 23, "leaf_value": 0.22868917484783768, "leaf_count": 26}}, "right_child": {"leaf_index": 22, "leaf_value": -0.0011001355414038386, "leaf_count": 22}}}, "right_child": {"split_index": 16, "split_feature": 38, "split_gain": 2.855340003967285, "threshold": 129.1666666666667, "decision_type": "<=", "default_left": true, "missing_type": "NaN", "internal_value": 0.691268, "internal_count": 118, "left_child": {"split_index": 18, "split_feature": 109, "split_gain": 1.4877699613571167, "threshold": 135.9166666666667, "decision_type": "<=", "default_left": true, "missing_type": "NaN", "internal_value": 1.19246, "internal_count": 64, "left_child": {"leaf_index": 16, "leaf_value": 0.14569424448965315, "leaf_count": 37}, "right_child": {"leaf_index": 19, "leaf_value": -0.1021427137156577, "leaf_count": 27}}, "right_child": {"leaf_index": 17, "leaf_value": -0.104977803930822, "leaf_count": 54}}}, "right_child": {"leaf_index": 15, "leaf_value": -0.10754368722866425, "leaf_count": 24}}}}}, "right_child": {"split_index": 